{"learner":{"attributes":{"best_iteration":"101","best_score":"0.08245012281901261","scikit_learn":"{\"_estimator_type\": \"regressor\"}"},"feature_names":[],"feature_types":[],"gradient_booster":{"model":{"gbtree_model_param":{"num_parallel_tree":"1","num_trees":"152"},"iteration_indptr":[0,1,2,3,4,5,6,7,8,9,10,11,12,13,14,15,16,17,18,19,20,21,22,23,24,25,26,27,28,29,30,31,32,33,34,35,36,37,38,39,40,41,42,43,44,45,46,47,48,49,50,51,52,53,54,55,56,57,58,59,60,61,62,63,64,65,66,67,68,69,70,71,72,73,74,75,76,77,78,79,80,81,82,83,84,85,86,87,88,89,90,91,92,93,94,95,96,97,98,99,100,101,102,103,104,105,106,107,108,109,110,111,112,113,114,115,116,117,118,119,120,121,122,123,124,125,126,127,128,129,130,131,132,133,134,135,136,137,138,139,140,141,142,143,144,145,146,147,148,149,150,151,152],"tree_info":[0,0,0,0,0,0,0,0,0,0,0,0,0,0,0,0,0,0,0,0,0,0,0,0,0,0,0,0,0,0,0,0,0,0,0,0,0,0,0,0,0,0,0,0,0,0,0,0,0,0,0,0,0,0,0,0,0,0,0,0,0,0,0,0,0,0,0,0,0,0,0,0,0,0,0,0,0,0,0,0,0,0,0,0,0,0,0,0,0,0,0,0,0,0,0,0,0,0,0,0,0,0,0,0,0,0,0,0,0,0,0,0,0,0,0,0,0,0,0,0,0,0,0,0,0,0,0,0,0,0,0,0,0,0,0,0,0,0,0,0,0,0,0,0,0,0,0,0,0,0,0,0],"trees":[{"base_weights":[-6.952671E-4,1.2483271E-1,-3.1731805E-1,7.395617E-3,2.1411557E-1,-3.6402896E-1,-1.2668863E-1,1.19881555E-1,-6.4752987E-3,-6.176442E-2,2.2499086E-1,-0E0,-3.6979064E-1,-0E0,-4.407695E-3,-0E0,4.1894843E-3,-3.132333E-2,1.5684558E-2,-3.4291479E-3,-0E0,5.7425734E-2,2.4280472E-1,-1.1225753E-2,-0E0,2.3501081E-2,-5.382152E-2,-8.215578E-4,4.4974767E-2,-0E0,2.9556153E-3,-0E0,2.4685718E-1,-0E0,8.035317E-4,-0E0,-7.310987E-2,5.7265807E-2,-0E0,2.4881753E-1,-0E0,-0E0,-9.131104E-2,7.4245624E-2,-0E0,7.5210766E-3,-0E0,-3.0567576E-3,-0E0,-0E0,2.4363557E-3],"categories":[],"categories_nodes":[],"categories_segments":[],"categories_sizes":[],"default_left":[0,0,0,0,0,0,0,0,0,0,0,0,0,0,0,0,0,0,0,0,0,0,0,0,0,0,0,0,0,0,0,0,0,0,0,0,0,0,0,0,0,0,0,0,0,0,0,0,0,0,0],"id":0,"left_children":[1,3,5,7,9,11,13,15,17,19,21,-1,23,-1,-1,-1,-1,25,27,-1,-1,29,31,-1,-1,33,35,-1,37,-1,-1,-1,39,-1,-1,-1,41,43,-1,45,-1,-1,47,49,-1,-1,-1,-1,-1,-1,-1],"loss_changes":[8.642536E0,1.5466716E0,3.5874414E-1,1.4245766E-1,3.2088804E-1,6.620026E-2,6.145975E-2,1.229997E-2,3.822065E-2,1.4686703E-2,1.4672613E-1,0E0,1.38754845E-2,0E0,0E0,0E0,0E0,5.3531747E-2,3.9308123E-2,0E0,0E0,4.1375462E-2,2.4963379E-2,0E0,0E0,4.383158E-4,3.8930297E-2,0E0,1.8574115E-2,0E0,0E0,0E0,8.052349E-3,0E0,0E0,0E0,4.3817893E-2,1.2632649E-2,0E0,4.003048E-3,0E0,0E0,9.73925E-3,8.876547E-4,0E0,0E0,0E0,0E0,0E0,0E0,0E0],"parents":[2147483647,0,0,1,1,2,2,3,3,4,4,5,5,6,6,7,7,8,8,9,9,10,10,12,12,17,17,18,18,21,21,22,22,25,25,26,26,28,28,32,32,36,36,37,37,39,39,42,42,43,43],"right_children":[2,4,6,8,10,12,14,16,18,20,22,-1,24,-1,-1,-1,-1,26,28,-1,-1,30,32,-1,-1,34,36,-1,38,-1,-1,-1,40,-1,-1,-1,42,44,-1,46,-1,-1,48,50,-1,-1,-1,-1,-1,-1,-1],"split_conditions":[9.0511745E-1,2.6320365E-1,-8.5485184E-1,-9.931564E-1,-1.7328603E0,-7.8475523E-1,-2.8350958E-1,-6.142643E-1,-3.54086E-1,1.0686206E0,4.0591642E-1,-0E0,-4.0316203E-1,-0E0,-4.407695E-3,-0E0,4.1894843E-3,-1.5191149E0,-9.705106E-1,-3.4291479E-3,-0E0,-2.0492005E-1,-2.2470598E0,-1.1225753E-2,-0E0,-3.3622935E-1,-1.2435206E0,-8.215578E-4,1.0728323E0,-0E0,2.9556153E-3,-0E0,2.4052904E0,-0E0,8.035317E-4,-0E0,-1.5414083E0,7.3521435E-1,-0E0,1.6435735E0,-0E0,-0E0,2.4757923E-1,-5.3204364E-1,-0E0,7.5210766E-3,-0E0,-3.0567576E-3,-0E0,-0E0,2.4363557E-3],"split_indices":[1,214,162,103,103,14,49,119,14,0,180,0,0,0,0,0,0,78,151,0,0,8,78,0,0,6,20,0,8,0,0,0,21,0,0,0,146,133,0,62,0,0,198,54,0,0,0,0,0,0,0],"split_type":[0,0,0,0,0,0,0,0,0,0,0,0,0,0,0,0,0,0,0,0,0,0,0,0,0,0,0,0,0,0,0,0,0,0,0,0,0,0,0,0,0,0,0,0,0,0,0,0,0,0,0],"sum_hessian":[2.14E2,1.53E2,6.1E1,6.8E1,8.5E1,4.7E1,1.4E1,9E0,5.9E1,2E0,8.3E1,1E0,4.6E1,1E0,1.3E1,2E0,7E0,3.4E1,2.5E1,1E0,1E0,1E1,7.3E1,4.5E1,1E0,6E0,2.8E1,6E0,1.9E1,3E0,7E0,2E0,7.1E1,1E0,5E0,6E0,2.2E1,1.7E1,2E0,7E1,1E0,3E0,1.9E1,1.2E1,5E0,6.9E1,1E0,1.6E1,3E0,2E0,1E1],"tree_param":{"num_deleted":"0","num_feature":"216","num_nodes":"51","size_leaf_vector":"1"}},{"base_weights":[-4.2801527E-3,1.2047123E-1,-3.118035E-1,1.2669107E-2,2.0819467E-1,-1.2749272E-2,-2.389152E-1,-5.621537E-3,9.88902E-2,-6.0621362E-2,2.1971074E-1,-2.4586914E-1,-0E0,-2.80352E-2,2.5341831E-2,1.16836004E-1,-0E0,-3.3777102E-3,-0E0,1.3129587E-1,2.5562403E-1,-0E0,-7.4957735E-3,2.6361875E-2,-5.084621E-2,4.145653E-2,-0E0,-0E0,3.6693602E-3,1.450706E-1,-0E0,-0E0,2.619723E-1,-0E0,1.2162884E-3,-0E0,-9.154217E-2,-0E0,1.4388986E-3,-0E0,1.5413675E-1,2.647573E-1,-0E0,-0E0,-8.0775394E-4,-3.1649035E-3,-0E0,-0E0,4.767128E-3,-0E0,8.114628E-3,3.0945256E-4,-0E0],"categories":[],"categories_nodes":[],"categories_segments":[],"categories_sizes":[],"default_left":[0,0,0,0,0,0,0,0,0,0,0,0,0,0,0,0,0,0,0,0,0,0,0,0,0,0,0,0,0,0,0,0,0,0,0,0,0,0,0,0,0,0,0,0,0,0,0,0,0,0,0,0,0],"id":1,"left_children":[1,3,5,7,9,-1,11,13,15,17,19,21,-1,23,25,27,-1,-1,-1,29,31,-1,-1,33,35,37,-1,-1,-1,39,-1,-1,41,-1,-1,43,45,-1,-1,-1,47,49,-1,51,-1,-1,-1,-1,-1,-1,-1,-1,-1],"loss_changes":[8.074667E0,1.3307059E0,2.0248413E-1,1.3735223E-1,3.0870223E-1,0E0,1.7314434E-2,3.9688606E-2,1.7118752E-2,1.4328323E-2,9.8032475E-2,1.4710188E-2,0E0,5.5838086E-2,1.2501267E-2,7.546842E-4,0E0,0E0,0E0,6.0694516E-2,3.3605814E-2,0E0,0E0,4.302797E-3,3.717412E-2,3.5447031E-3,0E0,0E0,0E0,2.030021E-2,0E0,0E0,3.250122E-3,0E0,0E0,5.799702E-3,1.6235292E-2,0E0,0E0,0E0,9.075344E-3,3.960848E-3,0E0,7.44807E-4,0E0,0E0,0E0,0E0,0E0,0E0,0E0,0E0,0E0],"parents":[2147483647,0,0,1,1,2,2,3,3,4,4,6,6,7,7,8,8,9,9,10,10,11,11,13,13,14,14,15,15,19,19,20,20,23,23,24,24,25,25,29,29,32,32,35,35,36,36,40,40,41,41,43,43],"right_children":[2,4,6,8,10,-1,12,14,16,18,20,22,-1,24,26,28,-1,-1,-1,30,32,-1,-1,34,36,38,-1,-1,-1,40,-1,-1,42,-1,-1,44,46,-1,-1,-1,48,50,-1,52,-1,-1,-1,-1,-1,-1,-1,-1,-1],"split_conditions":[9.0511745E-1,4.0591642E-1,-1.5019175E0,5.5689704E-1,-1.7328603E0,-1.2749272E-2,1.634309E0,4.8734286E-1,2.8160056E-1,1.0686206E0,7.86243E-1,-2.8350958E-1,-0E0,-7.5008607E-1,2.6317188E-1,-1.1913469E0,-0E0,-3.3777102E-3,-0E0,9.975694E-1,-2.2470598E0,-0E0,-7.4957735E-3,-1.2870399E0,-4.3382552E-1,-9.159709E-1,-0E0,-0E0,3.6693602E-3,-1.2931361E0,-0E0,-0E0,1.5876464E0,-0E0,1.2162884E-3,9.702216E-2,7.5832915E-1,-0E0,1.4388986E-3,-0E0,-2.0379882E0,-2.0672E0,-0E0,-8.789068E-2,-8.0775394E-4,-3.1649035E-3,-0E0,-0E0,4.767128E-3,-0E0,8.114628E-3,3.0945256E-4,-0E0],"split_indices":[1,180,161,70,103,0,169,29,11,0,196,31,0,211,180,11,0,0,0,80,78,0,0,8,32,191,0,0,0,104,0,0,29,0,0,72,77,0,0,0,116,115,0,103,0,0,0,0,0,0,0,0,0],"split_type":[0,0,0,0,0,0,0,0,0,0,0,0,0,0,0,0,0,0,0,0,0,0,0,0,0,0,0,0,0,0,0,0,0,0,0,0,0,0,0,0,0,0,0,0,0,0,0,0,0,0,0,0,0],"sum_hessian":[2.07E2,1.47E2,6E1,6.8E1,7.9E1,2E1,4E1,5.4E1,1.4E1,2E0,7.7E1,3.8E1,2E0,3.7E1,1.7E1,1.1E1,3E0,1E0,1E0,2.6E1,5.1E1,1E0,3.7E1,7E0,3E1,1.3E1,4E0,1E0,1E1,2.4E1,2E0,2E0,4.9E1,2E0,5E0,1.7E1,1.3E1,2E0,1.1E1,2E0,2.2E1,4.8E1,1E0,1E1,7E0,1.1E1,2E0,1E0,2.1E1,2E0,4.6E1,6E0,4E0],"tree_param":{"num_deleted":"0","num_feature":"216","num_nodes":"53","size_leaf_vector":"1"}},{"base_weights":[-1.009037E-2,1.0533299E-1,-3.108223E-1,1.5011132E-3,1.9446155E-1,-3.4938312E-1,-4.380031E-3,9.1688626E-2,-5.2131917E-3,2.0790926E-1,-2.7936354E-2,-0E0,-3.5534018E-1,-0E0,3.259447E-3,-2.4234062E-2,3.0033521E-2,-0E0,2.1313149E-1,-3.3270451E-3,-0E0,-1.0799846E-2,-0E0,-0E0,-5.682711E-2,-0E0,4.974008E-2,2.170892E-1,-0E0,-2.511501E-2,3.316104E-2,-8.902682E-2,-0E0,-0E0,6.357031E-2,-0E0,2.1960765E-1,-0E0,-1.5977055E-3,1.6353303E-3,-0E0,-0E0,-9.3834475E-2,-0E0,2.0107972E-3,2.2200482E-1,-0E0,-2.91484E-3,-0E0,6.7788493E-3,-0E0],"categories":[],"categories_nodes":[],"categories_segments":[],"categories_sizes":[],"default_left":[0,0,0,0,0,0,0,0,0,0,0,0,0,0,0,0,0,0,0,0,0,0,0,0,0,0,0,0,0,0,0,0,0,0,0,0,0,0,0,0,0,0,0,0,0,0,0,0,0,0,0],"id":2,"left_children":[1,3,5,7,9,11,-1,13,15,17,19,-1,21,-1,-1,23,25,-1,27,-1,-1,-1,-1,29,31,-1,33,35,-1,37,39,41,-1,-1,43,-1,45,-1,-1,-1,-1,-1,47,-1,-1,49,-1,-1,-1,-1,-1],"loss_changes":[7.106108E0,1.2920598E0,1.6264582E-1,6.880887E-2,2.9008722E-1,5.8448315E-2,0E0,3.5721958E-3,4.122466E-2,7.185912E-2,2.1476528E-2,0E0,1.3579369E-2,0E0,0E0,4.0213108E-2,1.6828772E-2,0E0,2.8338432E-2,0E0,0E0,0E0,0E0,2.3756966E-2,5.8996685E-2,0E0,8.248866E-3,2.8758287E-2,0E0,1.0392589E-2,1.8390441E-2,5.2612126E-3,0E0,0E0,2.1200627E-5,0E0,2.375865E-2,0E0,0E0,0E0,0E0,0E0,9.0911984E-5,0E0,0E0,1.8414497E-2,0E0,0E0,0E0,0E0,0E0],"parents":[2147483647,0,0,1,1,2,2,3,3,4,4,5,5,7,7,8,8,9,9,10,10,12,12,15,15,16,16,18,18,23,23,24,24,26,26,27,27,29,29,30,30,31,31,34,34,36,36,42,42,45,45],"right_children":[2,4,6,8,10,12,-1,14,16,18,20,-1,22,-1,-1,24,26,-1,28,-1,-1,-1,-1,30,32,-1,34,36,-1,38,40,42,-1,-1,44,-1,46,-1,-1,-1,-1,-1,48,-1,-1,50,-1,-1,-1,-1,-1],"split_conditions":[9.3198824E-1,2.6320365E-1,-9.519027E-1,-9.931564E-1,1.1962459E0,-2.1973011E0,-4.380031E-3,-9.0482163E-1,6.843145E-1,-2.0379882E0,4.3549645E-1,-0E0,-4.0316203E-1,-0E0,3.259447E-3,4.3203923E-1,-4.3890804E-1,-0E0,2.5085928E0,-3.3270451E-3,-0E0,-1.0799846E-2,-0E0,-4.4536677E-1,1.2306167E0,-0E0,-4.9112347E-1,-2.1200638E0,-0E0,8.074454E-1,8.964268E-1,-1.4833449E0,-0E0,-0E0,-9.5594835E-1,-0E0,1.2171335E0,-0E0,-1.5977055E-3,1.6353303E-3,-0E0,-0E0,1.0210799E0,-0E0,2.0107972E-3,1.1977947E0,-0E0,-2.91484E-3,-0E0,6.7788493E-3,-0E0],"split_indices":[1,214,172,103,38,24,0,65,29,116,2,0,0,0,0,200,83,0,39,0,0,0,0,44,3,0,49,90,0,56,44,1,0,0,36,0,168,0,0,0,0,0,3,0,0,204,0,0,0,0,0],"split_type":[0,0,0,0,0,0,0,0,0,0,0,0,0,0,0,0,0,0,0,0,0,0,0,0,0,0,0,0,0,0,0,0,0,0,0,0,0,0,0,0,0,0,0,0,0,0,0,0,0,0,0],"sum_hessian":[2.01E2,1.45E2,5.6E1,6.9E1,7.6E1,4.3E1,1.3E1,7E0,6.2E1,7.3E1,3E0,1E0,4.2E1,2E0,5E0,4.6E1,1.6E1,2E0,7.1E1,1E0,2E0,4.1E1,1E0,2.6E1,2E1,4E0,1.2E1,6.9E1,2E0,1.4E1,1.2E1,1.5E1,5E0,3E0,9E0,1E0,6.8E1,8E0,6E0,1E1,2E0,1E0,1.4E1,1E0,8E0,6.7E1,1E0,1.3E1,1E0,6.5E1,2E0],"tree_param":{"num_deleted":"0","num_feature":"216","num_nodes":"51","size_leaf_vector":"1"}},{"base_weights":[6.529662E-3,-3.108844E-1,1.0509169E-1,-3.2303625E-1,-4.613605E-4,3.4274603E-3,1.9377056E-1,-3.322592E-1,-0E0,1.337701E-1,-3.1331247E-3,-2.657851E-2,2.0850195E-1,-0E0,-1.0095901E-2,4.610139E-3,-0E0,2.484195E-2,-2.505383E-2,-0E0,-3.677824E-3,-0E0,2.1274532E-1,-0E0,5.258865E-2,-0E0,-9.1968775E-2,-0E0,2.1486318E-1,-1.196067E-2,-0E0,7.2877936E-2,-0E0,-1.3929373E-2,2.7958943E-2,-3.2588928E-3,-0E0,-0E0,2.1695954E-1,-0E0,-4.289511E-4,8.4730566E-2,-0E0,-0E0,-4.191834E-2,5.1913276E-2,-0E0,-0E0,2.1901542E-1,2.7016827E-3,-0E0,-0E0,9.462229E-5,-0E0,-1.6063687E-3,1.6665313E-3,-0E0,-0E0,6.6273515E-3],"categories":[],"categories_nodes":[],"categories_segments":[],"categories_sizes":[],"default_left":[0,0,0,0,0,0,0,0,0,0,0,0,0,0,0,0,0,0,0,0,0,0,0,0,0,0,0,0,0,0,0,0,0,0,0,0,0,0,0,0,0,0,0,0,0,0,0,0,0,0,0,0,0,0,0,0,0,0,0],"id":3,"left_children":[1,3,5,7,-1,9,11,13,-1,15,17,19,21,-1,-1,-1,-1,23,25,-1,-1,-1,27,29,31,33,35,-1,37,39,-1,41,-1,43,45,-1,-1,-1,47,-1,-1,49,-1,51,53,55,-1,-1,57,-1,-1,-1,-1,-1,-1,-1,-1,-1,-1],"loss_changes":[6.6346326E0,7.305527E-2,1.4187135E0,6.326437E-2,0E0,1.07164994E-1,3.3927917E-1,1.527977E-2,0E0,1.0707714E-2,4.6065215E-2,4.155588E-2,1.0131502E-1,0E0,0E0,0E0,0E0,3.0352319E-2,8.828625E-2,0E0,0E0,0E0,2.718854E-2,1.1444611E-3,2.203089E-2,1.5212438E-2,2.318953E-2,0E0,2.5348663E-2,2.866428E-4,0E0,9.926438E-3,0E0,1.5060019E-2,1.8701036E-2,0E0,0E0,0E0,2.2841215E-2,0E0,0E0,2.1290407E-3,0E0,7.9585596E-5,3.6084484E-3,1.2143161E-3,0E0,0E0,1.6268492E-2,0E0,0E0,0E0,0E0,0E0,0E0,0E0,0E0,0E0,0E0],"parents":[2147483647,0,0,1,1,2,2,3,3,5,5,6,6,7,7,9,9,10,10,11,11,12,12,17,17,18,18,22,22,23,23,24,24,25,25,26,26,28,28,29,29,31,31,33,33,34,34,38,38,41,41,43,43,44,44,45,45,48,48],"right_children":[2,4,6,8,-1,10,12,14,-1,16,18,20,22,-1,-1,-1,-1,24,26,-1,-1,-1,28,30,32,34,36,-1,38,40,-1,42,-1,44,46,-1,-1,-1,48,-1,-1,50,-1,52,54,56,-1,-1,58,-1,-1,-1,-1,-1,-1,-1,-1,-1,-1],"split_conditions":[-5.302225E-1,-4.1025484E-1,2.371892E-1,1.242254E0,-4.613605E-4,-1.0176401E0,-1.2533519E0,-1.7915769E0,-0E0,6.059683E-1,-3.4913376E-1,7.729424E-1,-2.0379882E0,-0E0,-1.0095901E-2,4.610139E-3,-0E0,-2.734802E-1,-3.821851E-1,-0E0,-3.677824E-3,-0E0,-2.2759128E0,7.223442E-1,2.5580344E-1,2.046947E-1,6.655716E-1,-0E0,-1.7624271E0,-1.1814384E0,-0E0,5.1139224E-1,-0E0,-6.891111E-2,1.1403447E0,-3.2588928E-3,-0E0,-0E0,-2.8028804E-1,-0E0,-4.289511E-4,1.2558115E0,-0E0,-1.2952957E-1,-4.354753E-1,9.647513E-1,-0E0,-0E0,-1.782873E0,2.7016827E-3,-0E0,-0E0,9.462229E-5,-0E0,-1.6063687E-3,1.6665313E-3,-0E0,-0E0,6.6273515E-3],"split_indices":[125,17,214,115,0,103,131,6,0,2,201,0,80,0,0,0,0,178,86,0,0,0,8,193,162,26,29,0,56,2,0,46,0,101,65,0,0,0,190,0,0,59,0,11,79,6,0,0,92,0,0,0,0,0,0,0,0,0,0],"split_type":[0,0,0,0,0,0,0,0,0,0,0,0,0,0,0,0,0,0,0,0,0,0,0,0,0,0,0,0,0,0,0,0,0,0,0,0,0,0,0,0,0,0,0,0,0,0,0,0,0,0,0,0,0,0,0,0,0,0,0],"sum_hessian":[2.12E2,4.9E1,1.63E2,4.6E1,3E0,7.8E1,8.5E1,4.4E1,2E0,5E0,7.3E1,4E0,8.1E1,1E0,4.3E1,4E0,1E0,2.6E1,4.7E1,2E0,2E0,1E0,8E1,1E1,1.6E1,3.4E1,1.3E1,1E0,7.9E1,7E0,3E0,1.2E1,4E0,2.1E1,1.3E1,1.1E1,2E0,1E0,7.8E1,1E0,6E0,1E1,2E0,1.1E1,1E1,1E1,3E0,1E0,7.7E1,9E0,1E0,4E0,7E0,3E0,7E0,9E0,1E0,1E0,7.6E1],"tree_param":{"num_deleted":"0","num_feature":"216","num_nodes":"59","size_leaf_vector":"1"}},{"base_weights":[-3.5422738E-3,-3.0198094E-1,9.714777E-2,-3.0921358E-1,-0E0,1.0449123E-2,1.7611414E-1,-3.1238773E-1,-0E0,6.665815E-2,-1.5904082E-2,-2.5107373E-2,1.9006467E-1,-0E0,-3.1555837E-1,9.090431E-2,-0E0,1.1854849E-2,-4.963061E-2,-0E0,-3.6042673E-3,1.9596453E-1,-0E0,-9.559979E-3,-0E0,1.233486E-1,-0E0,-0E0,2.342311E-3,-8.441624E-2,-0E0,1.986828E-1,-0E0,4.1303714E-3,-0E0,-1.6739734E-2,1.3250783E-4,-9.088491E-2,-0E0,2.0212226E-1,-0E0,-1.2342584E-3,-0E0,-3.0297933E-3,-0E0,-0E0,2.0423967E-1,6.2253573E-3,-0E0],"categories":[],"categories_nodes":[],"categories_segments":[],"categories_sizes":[],"default_left":[0,0,0,0,0,0,0,0,0,0,0,0,0,0,0,0,0,0,0,0,0,0,0,0,0,0,0,0,0,0,0,0,0,0,0,0,0,0,0,0,0,0,0,0,0,0,0,0,0],"id":4,"left_children":[1,3,5,7,-1,9,11,13,-1,15,17,19,21,-1,23,25,-1,27,29,-1,-1,31,-1,-1,-1,33,-1,35,-1,37,-1,39,-1,-1,-1,41,-1,43,-1,45,-1,-1,-1,-1,-1,-1,47,-1,-1],"loss_changes":[6.7618427E0,6.074524E-2,1.078673E0,1.0931492E-2,0E0,1.3775197E-1,2.928667E-1,7.936478E-3,0E0,5.676338E-2,6.154034E-2,4.0150575E-2,1.0767484E-1,0E0,2.9101372E-3,3.8160503E-2,0E0,3.9158728E-2,5.6837134E-2,0E0,0E0,4.5273066E-2,0E0,0E0,0E0,1.8198654E-2,0E0,4.5615355E-3,0E0,1.2151286E-2,0E0,2.5820017E-2,0E0,0E0,0E0,1.2443103E-2,0E0,1.2572989E-2,0E0,2.3679018E-2,0E0,0E0,0E0,0E0,0E0,0E0,1.4929533E-2,0E0,0E0],"parents":[2147483647,0,0,1,1,2,2,3,3,5,5,6,6,7,7,9,9,10,10,11,11,12,12,14,14,15,15,17,17,18,18,21,21,25,25,27,27,29,29,31,31,35,35,37,37,39,39,46,46],"right_children":[2,4,6,8,-1,10,12,14,-1,16,18,20,22,-1,24,26,-1,28,30,-1,-1,32,-1,-1,-1,34,-1,36,-1,38,-1,40,-1,-1,-1,42,-1,44,-1,46,-1,-1,-1,-1,-1,-1,48,-1,-1],"split_conditions":[-5.302225E-1,-3.4101385E-1,3.7647516E-1,1.634309E0,-0E0,-3.1330824E-1,-1.2533519E0,-2.2595775E0,-0E0,1.7290358E-1,-3.2757512E-1,-8.5588706E-1,1.7907745E0,-0E0,-2.4841213E-1,-2.6475972E-1,-0E0,1.2654403E-1,-7.91438E-2,-0E0,-3.6042673E-3,-1.8571939E-1,-0E0,-9.559979E-3,-0E0,7.692399E-1,-0E0,5.92999E-1,2.342311E-3,1.5618376E0,-0E0,2.5085928E0,-0E0,4.1303714E-3,-0E0,6.011197E-1,1.3250783E-4,1.8154328E0,-0E0,-2.2759128E0,-0E0,-1.2342584E-3,-0E0,-3.0297933E-3,-0E0,-0E0,1.2259039E0,6.2253573E-3,-0E0],"split_indices":[125,35,214,115,0,85,131,24,0,77,113,1,212,0,17,175,0,31,17,0,0,1,0,0,0,29,0,170,0,24,0,39,0,0,0,39,0,96,0,8,0,0,0,0,0,0,204,0,0],"split_type":[0,0,0,0,0,0,0,0,0,0,0,0,0,0,0,0,0,0,0,0,0,0,0,0,0,0,0,0,0,0,0,0,0,0,0,0,0,0,0,0,0,0,0,0,0,0,0,0,0],"sum_hessian":[2.21E2,5.6E1,1.65E2,5.4E1,2E0,8.1E1,8.4E1,5.3E1,1E0,2.9E1,5.2E1,4E0,8E1,1E0,5.2E1,2.2E1,7E0,2.4E1,2.8E1,2E0,2E0,7.8E1,2E0,5.1E1,1E0,1.4E1,8E0,1.8E1,6E0,1.7E1,1.1E1,7.7E1,1E0,1.2E1,2E0,1.5E1,3E0,1.6E1,1E0,7.5E1,2E0,9E0,6E0,1.4E1,2E0,1E0,7.4E1,7.2E1,2E0],"tree_param":{"num_deleted":"0","num_feature":"216","num_nodes":"49","size_leaf_vector":"1"}},{"base_weights":[5.2260924E-3,1.10481605E-1,-2.7810007E-1,1.9141797E-2,1.8885323E-1,-1.1236542E-2,-1.9730595E-1,5.4442003E-2,-4.1881393E-4,-0E0,1.9679904E-1,-6.388826E-3,-9.2785986E-4,7.865474E-2,-0E0,1.3050646E-2,-2.6370823E-2,1.9990303E-1,-0E0,9.502285E-2,-0E0,-2.660961E-4,-0E0,4.1649073E-2,-1.1852339E-2,-4.379484E-2,-0E0,-0E0,2.0165062E-1,1.1098152E-2,1.3564968E-1,5.7010375E-2,-0E0,-0E0,-6.18844E-4,-0E0,-1.8547422E-3,2.0466287E-1,-0E0,4.2411068E-4,-0E0,4.294392E-3,-0E0,-0E0,6.4810164E-2,-0E0,2.0774722E-1,-0E0,2.201556E-3,6.3294787E-3,-0E0],"categories":[],"categories_nodes":[],"categories_segments":[],"categories_sizes":[],"default_left":[0,0,0,0,0,0,0,0,0,0,0,0,0,0,0,0,0,0,0,0,0,0,0,0,0,0,0,0,0,0,0,0,0,0,0,0,0,0,0,0,0,0,0,0,0,0,0,0,0,0,0],"id":5,"left_children":[1,3,5,7,9,-1,11,13,15,-1,17,-1,-1,19,21,23,25,27,-1,29,-1,-1,-1,31,33,35,-1,-1,37,39,41,43,-1,-1,-1,-1,-1,45,-1,-1,-1,-1,-1,-1,47,-1,49,-1,-1,-1,-1],"loss_changes":[6.749953E0,1.1294475E0,2.2989607E-1,7.146925E-2,1.5347028E-1,0E0,1.6617656E-2,6.0077086E-2,2.0769509E-2,0E0,2.4742603E-2,0E0,0E0,4.6824113E-2,5.5072206E-4,2.6525125E-2,1.3997721E-2,1.7582893E-2,0E0,3.2890856E-2,0E0,0E0,0E0,1.6013589E-2,1.4292961E-3,1.5179772E-2,0E0,0E0,1.6587734E-2,4.4383993E-4,6.6798627E-3,9.1020875E-3,0E0,0E0,0E0,0E0,0E0,1.5443325E-2,0E0,0E0,0E0,0E0,0E0,0E0,4.6346225E-3,0E0,1.6643763E-2,0E0,0E0,0E0,0E0],"parents":[2147483647,0,0,1,1,2,2,3,3,4,4,6,6,7,7,8,8,10,10,13,13,14,14,15,15,16,16,17,17,19,19,23,23,24,24,25,25,28,28,29,29,30,30,31,31,37,37,44,44,46,46],"right_children":[2,4,6,8,10,-1,12,14,16,-1,18,-1,-1,20,22,24,26,28,-1,30,-1,-1,-1,32,34,36,-1,-1,38,40,42,44,-1,-1,-1,-1,-1,46,-1,-1,-1,-1,-1,-1,48,-1,50,-1,-1,-1,-1],"split_conditions":[9.0511745E-1,2.6320365E-1,-1.5019175E0,-3.977165E-1,-2.0379882E0,-1.1236542E-2,1.1713632E0,9.260405E-1,-1.6109982E-1,-0E0,2.5085928E0,-6.388826E-3,-9.2785986E-4,6.874468E-1,-7.8367263E-1,6.0820395E-1,-8.378602E-2,-1.5722585E-1,-0E0,-6.433388E-3,-0E0,-2.660961E-4,-0E0,8.258846E-1,-1.4443123E0,-1.4572513E0,-0E0,-0E0,1.6812963E0,1.0618299E0,2.1952422E0,-1.6035775E0,-0E0,-0E0,-6.18844E-4,-0E0,-1.8547422E-3,-1.782873E0,-0E0,4.2411068E-4,-0E0,4.294392E-3,-0E0,-0E0,-6.0854346E-1,-0E0,1.2259039E0,-0E0,2.201556E-3,6.3294787E-3,-0E0],"split_indices":[1,214,161,61,116,0,169,182,67,0,39,0,0,162,61,92,17,180,0,70,0,0,0,186,1,164,0,0,44,96,3,4,0,0,0,0,0,92,0,0,0,0,0,0,72,0,204,0,0,0,0],"split_type":[0,0,0,0,0,0,0,0,0,0,0,0,0,0,0,0,0,0,0,0,0,0,0,0,0,0,0,0,0,0,0,0,0,0,0,0,0,0,0,0,0,0,0,0,0,0,0,0,0,0,0],"sum_hessian":[2.26E2,1.66E2,6E1,7.9E1,8.7E1,2.4E1,3.6E1,3.3E1,4.6E1,3E0,8.4E1,3.1E1,5E0,2.5E1,8E0,2.3E1,2.3E1,8.2E1,2E0,2.2E1,3E0,6E0,2E0,1.6E1,7E0,1.5E1,8E0,1E0,8.1E1,1E1,1.2E1,1.3E1,3E0,2E0,5E0,4E0,1.1E1,7.9E1,2E0,8E0,2E0,1.1E1,1E0,1E0,1.2E1,2E0,7.7E1,2E0,1E1,7.5E1,2E0],"tree_param":{"num_deleted":"0","num_feature":"216","num_nodes":"51","size_leaf_vector":"1"}},{"base_weights":[1.7632067E-4,-2.8518534E-1,9.6576266E-2,-2.978663E-1,-0E0,-0E0,1.746244E-1,-0E0,-3.0101836E-1,5.8797564E-2,-2.3236351E-2,-5.665736E-2,1.8698324E-1,-3.042151E-1,-0E0,-0E0,1.0265282E-1,1.9135828E-3,-5.999835E-2,-0E0,-3.5321813E-3,1.9260079E-1,-0E0,-9.223561E-3,-0E0,-1.701772E-5,-0E0,3.3951665E-3,-0E0,4.99194E-2,-5.1372554E-3,-0E0,-7.93064E-2,-0E0,1.9800068E-1,-0E0,1.7491608E-3,-0E0,-2.2637129E-2,-0E0,-9.77758E-2,2.0240526E-1,-0E0,-0E0,-8.157717E-4,-1.0312196E-1,-0E0,-0E0,2.0561069E-1,-0E0,-3.3662086E-3,-0E0,6.2261107E-3],"categories":[],"categories_nodes":[],"categories_segments":[],"categories_sizes":[],"default_left":[0,0,0,0,0,0,0,0,0,0,0,0,0,0,0,0,0,0,0,0,0,0,0,0,0,0,0,0,0,0,0,0,0,0,0,0,0,0,0,0,0,0,0,0,0,0,0,0,0,0,0,0,0],"id":6,"left_children":[1,3,5,7,-1,9,11,-1,13,15,17,19,21,23,-1,25,27,29,31,-1,-1,33,-1,-1,-1,-1,-1,-1,-1,35,37,-1,39,-1,41,-1,-1,-1,43,-1,45,47,-1,-1,-1,49,-1,-1,51,-1,-1,-1,-1],"loss_changes":[5.8028355E0,1.2569094E-1,1.1911278E0,3.7736893E-3,0E0,1.04133636E-1,3.01229E-1,0E0,2.2568703E-3,8.200665E-2,6.561746E-2,2.8747458E-2,1.0705757E-1,5.1021576E-4,0E0,2.2524669E-6,8.439332E-3,2.2830088E-2,5.106377E-2,0E0,0E0,5.7451725E-2,0E0,0E0,0E0,0E0,0E0,0E0,0E0,4.7686007E-3,5.6478386E-3,0E0,4.6543524E-2,0E0,5.915332E-2,0E0,0E0,0E0,1.2449855E-3,0E0,1.0846496E-2,1.7462254E-2,0E0,0E0,0E0,1.1988193E-2,0E0,0E0,1.7414093E-2,0E0,0E0,0E0,0E0],"parents":[2147483647,0,0,1,1,2,2,3,3,5,5,6,6,8,8,9,9,10,10,11,11,12,12,13,13,15,15,16,16,17,17,18,18,21,21,29,29,30,30,32,32,34,34,38,38,40,40,41,41,45,45,48,48],"right_children":[2,4,6,8,-1,10,12,-1,14,16,18,20,22,24,-1,26,28,30,32,-1,-1,34,-1,-1,-1,-1,-1,-1,-1,36,38,-1,40,-1,42,-1,-1,-1,44,-1,46,48,-1,-1,-1,50,-1,-1,52,-1,-1,-1,-1],"split_conditions":[-5.2693164E-1,-3.7682772E-1,2.6320365E-1,-2.2595775E0,-0E0,-6.815257E-1,-1.2533519E0,-0E0,4.0034175E-1,-8.41404E-1,-2.6394546E-1,5.721538E-1,1.7907745E0,-1.2140255E-1,-0E0,5.721538E-1,3.4281307E-1,-5.9842485E-1,-1.315973E0,-0E0,-3.5321813E-3,1.2574697E-1,-0E0,-9.223561E-3,-0E0,-1.701772E-5,-0E0,3.3951665E-3,-0E0,-6.0854346E-1,-2.3867115E-1,-0E0,-1.0078804E0,-0E0,-2.0140563E-1,-0E0,1.7491608E-3,-0E0,-6.7871225E-1,-0E0,1.9093636E0,-2.2470598E0,-0E0,-0E0,-8.157717E-4,-2.4216866E0,-0E0,-0E0,-1.1913469E0,-0E0,-3.3662086E-3,-0E0,6.2261107E-3],"split_indices":[143,71,214,24,0,113,131,0,0,131,31,0,212,57,0,0,110,211,146,0,0,180,0,0,0,0,0,0,0,0,70,0,79,0,1,0,0,0,3,0,5,78,0,0,0,26,0,0,173,0,0,0,0],"split_type":[0,0,0,0,0,0,0,0,0,0,0,0,0,0,0,0,0,0,0,0,0,0,0,0,0,0,0,0,0,0,0,0,0,0,0,0,0,0,0,0,0,0,0,0,0,0,0,0,0,0,0,0,0],"sum_hessian":[2.11E2,5.2E1,1.59E2,4.9E1,3E0,7.2E1,8.7E1,1E0,4.8E1,2.1E1,5.1E1,3E0,8.4E1,4.7E1,1E0,7E0,1.4E1,2.6E1,2.5E1,1E0,2E0,8.2E1,2E0,4.6E1,1E0,6E0,1E0,1.2E1,2E0,8E0,1.8E1,3E0,2.2E1,3E0,7.9E1,1E0,7E0,7E0,1.1E1,3E0,1.9E1,7.7E1,2E0,2E0,9E0,1.8E1,1E0,2E0,7.5E1,2E0,1.6E1,1E0,7.4E1],"tree_param":{"num_deleted":"0","num_feature":"216","num_nodes":"53","size_leaf_vector":"1"}},{"base_weights":[-4.3103E-3,-2.6909375E-1,8.375647E-2,-2.792876E-1,-0E0,8.935483E-3,1.5749449E-1,-2.824294E-1,-0E0,1.0443206E-1,-1.5905459E-4,-2.2812258E-2,1.7160311E-1,-2.8566068E-1,-0E0,-0E0,3.629497E-3,-1.8831711E-2,6.43941E-2,-0E0,-3.4615379E-3,7.567366E-2,2.0017563E-1,-8.662954E-3,-0E0,-4.2124152E-2,1.9084431E-2,-0E0,2.6918922E-3,-0E0,9.60185E-2,-0E0,2.0480199E-1,-0E0,-5.4831274E-2,-0E0,3.419282E-2,1.1196098E-1,-0E0,2.0950328E-1,-0E0,-7.799194E-2,-0E0,1.1655707E-3,-0E0,-0E0,3.5158223E-3,-0E0,2.1418002E-1,-0E0,-2.5678563E-3,-0E0,-2.2107249E-4,-0E0,6.4971545E-3],"categories":[],"categories_nodes":[],"categories_segments":[],"categories_sizes":[],"default_left":[0,0,0,0,0,0,0,0,0,0,0,0,0,0,0,0,0,0,0,0,0,0,0,0,0,0,0,0,0,0,0,0,0,0,0,0,0,0,0,0,0,0,0,0,0,0,0,0,0,0,0,0,0,0,0],"id":7,"left_children":[1,3,5,7,-1,9,11,13,-1,15,17,19,21,23,-1,-1,-1,25,27,-1,-1,29,31,-1,-1,33,35,-1,-1,-1,37,-1,39,-1,41,-1,43,45,-1,47,-1,49,51,-1,-1,-1,-1,-1,53,-1,-1,-1,-1,-1,-1],"loss_changes":[5.021688E0,6.7861795E-2,8.2589066E-1,1.0238409E-2,0E0,1.02515295E-1,2.4697483E-1,1.0181189E-2,0E0,8.034982E-3,7.5536594E-2,3.733882E-2,1.049273E-1,3.99518E-3,0E0,0E0,0E0,6.1588563E-2,2.660846E-2,0E0,0E0,4.569538E-2,1.7285109E-2,0E0,0E0,3.1931773E-2,1.0617139E-2,0E0,0E0,0E0,3.461221E-2,0E0,1.3500929E-2,0E0,3.1670213E-2,0E0,2.0863395E-3,5.452618E-3,0E0,7.3268414E-3,0E0,1.3954267E-2,5.430338E-4,0E0,0E0,0E0,0E0,0E0,2.5496483E-3,0E0,0E0,0E0,0E0,0E0,0E0],"parents":[2147483647,0,0,1,1,2,2,3,3,5,5,6,6,7,7,9,9,10,10,11,11,12,12,13,13,17,17,18,18,21,21,22,22,25,25,26,26,30,30,32,32,34,34,36,36,37,37,39,39,41,41,42,42,48,48],"right_children":[2,4,6,8,-1,10,12,14,-1,16,18,20,22,24,-1,-1,-1,26,28,-1,-1,30,32,-1,-1,34,36,-1,-1,-1,38,-1,40,-1,42,-1,44,46,-1,48,-1,50,52,-1,-1,-1,-1,-1,54,-1,-1,-1,-1,-1,-1],"split_conditions":[-5.302225E-1,1.2888088E0,2.6320365E-1,1.634309E0,-0E0,-9.931564E-1,-1.2533519E0,-2.1331923E-1,-0E0,-6.142643E-1,9.639196E-1,-8.5588706E-1,6.93824E-1,1.634309E0,-0E0,-0E0,3.629497E-3,6.655716E-1,1.3710791E-1,-0E0,-3.4615379E-3,-8.515347E-1,-1.477799E0,-8.662954E-3,-0E0,-1.4552413E0,-6.3098824E-1,-0E0,2.6918922E-3,-0E0,1.3833642E0,-0E0,1.7833976E0,-0E0,-3.405892E-2,-0E0,1.0482174E0,-1.1941273E0,-0E0,-1.2225118E0,-0E0,-4.3290195E-1,-5.169092E-1,1.1655707E-3,-0E0,-0E0,3.5158223E-3,-0E0,-2.0775275E0,-0E0,-2.5678563E-3,-0E0,-2.2107249E-4,-0E0,6.4971545E-3],"split_indices":[125,169,214,115,0,103,131,16,0,119,5,1,196,205,0,0,0,29,26,0,0,203,13,0,0,132,83,0,0,0,205,0,113,0,214,0,132,11,0,113,0,125,108,0,0,0,0,0,115,0,0,0,0,0,0],"split_type":[0,0,0,0,0,0,0,0,0,0,0,0,0,0,0,0,0,0,0,0,0,0,0,0,0,0,0,0,0,0,0,0,0,0,0,0,0,0,0,0,0,0,0,0,0,0,0,0,0,0,0,0,0,0,0],"sum_hessian":[2.11E2,5.3E1,1.58E2,5E1,3E0,8.1E1,7.7E1,4.9E1,1E0,9E0,7.2E1,4E0,7.3E1,4.8E1,1E0,2E0,7E0,6E1,1.2E1,2E0,2E0,2E1,5.3E1,4.7E1,1E0,4.2E1,1.8E1,3E0,9E0,3E0,1.7E1,2E0,5.1E1,7E0,3.5E1,4E0,1.4E1,1.5E1,2E0,4.9E1,2E0,2.2E1,1.3E1,1.2E1,2E0,1E0,1.4E1,2E0,4.7E1,2E0,2E1,4E0,9E0,1E0,4.6E1],"tree_param":{"num_deleted":"0","num_feature":"216","num_nodes":"55","size_leaf_vector":"1"}},{"base_weights":[3.5349117E-3,1.0746869E-1,-2.4416988E-1,1.5462527E-2,1.6836785E-1,-9.663779E-3,-1.5938011E-1,4.1974332E-2,-2.6536612E-2,1.847105E-1,-0E0,-0E0,-1.6902836E-1,-0E0,7.463744E-2,-0E0,-6.580003E-2,-0E0,1.9057007E-1,1.2500829E-3,-9.655313E-2,-0E0,-1.7201304E-1,-2.5294535E-2,1.8423451E-2,9.3111254E-2,-0E0,4.2598037E-4,-0E0,-2.226223E-3,-0E0,-0E0,1.9507603E-1,-0E0,-3.3923083E-3,-0E0,-5.2436343E-3,-1.0065909E-3,-0E0,9.864913E-4,-0E0,1.3868478E-2,1.329912E-1,1.9676545E-1,-0E0,5.4547406E-4,-0E0,4.232603E-3,-0E0,-0E0,1.9822027E-1,5.990874E-3,-0E0],"categories":[],"categories_nodes":[],"categories_segments":[],"categories_sizes":[],"default_left":[0,0,0,0,0,0,0,0,0,0,0,0,0,0,0,0,0,0,0,0,0,0,0,0,0,0,0,0,0,0,0,0,0,0,0,0,0,0,0,0,0,0,0,0,0,0,0,0,0,0,0,0,0],"id":8,"left_children":[1,3,5,7,9,-1,11,13,15,17,19,-1,21,23,25,27,29,-1,31,-1,33,-1,35,37,39,41,-1,-1,-1,-1,-1,-1,43,-1,-1,-1,-1,-1,-1,-1,-1,45,47,49,-1,-1,-1,-1,-1,-1,51,-1,-1],"loss_changes":[5.5203824E0,7.995217E-1,2.2063017E-1,7.700744E-2,2.804954E-1,0E0,7.916069E-2,5.617678E-2,3.7167702E-2,7.356429E-2,4.5971736E-2,0E0,4.002273E-3,9.870438E-3,5.7035595E-2,1.2097285E-3,8.618448E-3,0E0,6.290746E-2,0E0,1.0691583E-3,0E0,2.4265051E-4,2.7621333E-3,7.1423105E-3,2.362205E-2,0E0,0E0,0E0,0E0,0E0,0E0,1.2918472E-2,0E0,0E0,0E0,0E0,0E0,0E0,0E0,0E0,8.597383E-4,6.720364E-3,4.954815E-3,0E0,0E0,0E0,0E0,0E0,0E0,4.7445297E-3,0E0,0E0],"parents":[2147483647,0,0,1,1,2,2,3,3,4,4,6,6,7,7,8,8,9,9,10,10,12,12,13,13,14,14,15,15,16,16,18,18,20,20,22,22,23,23,24,24,25,25,32,32,41,41,42,42,43,43,50,50],"right_children":[2,4,6,8,10,-1,12,14,16,18,20,-1,22,24,26,28,30,-1,32,-1,34,-1,36,38,40,42,-1,-1,-1,-1,-1,-1,44,-1,-1,-1,-1,-1,-1,-1,-1,46,48,50,-1,-1,-1,-1,-1,-1,52,-1,-1],"split_conditions":[9.0511745E-1,2.6320365E-1,-1.4797666E0,6.2061954E-1,1.091245E0,-9.663779E-3,-2.8350958E-1,2.5849095E-1,-3.3124965E-1,-1.6008322E0,-8.5588706E-1,-0E0,-1.7388865E0,-4.8122483E-1,1.1558602E0,-3.283456E-2,-1.6210958E-1,-0E0,-2.0379882E0,1.2500829E-3,4.0591642E-1,-0E0,-2.8350958E-1,2.3632212E-1,6.5784746E-1,-1.2955445E-1,-0E0,4.2598037E-4,-0E0,-2.226223E-3,-0E0,-0E0,2.6153386E0,-0E0,-3.3923083E-3,-0E0,-5.2436343E-3,-1.0065909E-3,-0E0,9.864913E-4,-0E0,2.3632212E-1,2.1952422E0,-1.5722585E-1,-0E0,5.4547406E-4,-0E0,4.232603E-3,-0E0,-0E0,1.5883876E0,5.990874E-3,-0E0],"split_indices":[1,214,179,1,150,0,49,168,190,67,1,0,0,121,2,144,14,0,116,0,0,0,31,2,47,108,0,0,0,0,0,0,3,0,0,0,0,0,0,0,0,20,3,198,0,0,0,0,0,0,2,0,0],"split_type":[0,0,0,0,0,0,0,0,0,0,0,0,0,0,0,0,0,0,0,0,0,0,0,0,0,0,0,0,0,0,0,0,0,0,0,0,0,0,0,0,0,0,0,0,0,0,0,0,0,0,0,0,0],"sum_hessian":[2.14E2,1.52E2,6.2E1,6.3E1,8.9E1,2.9E1,3.3E1,4.3E1,2E1,8.2E1,7E0,1E0,3.2E1,2E1,2.3E1,9E0,1.1E1,3E0,7.9E1,4E0,3E0,1E0,3.1E1,7E0,1.3E1,2.1E1,2E0,5E0,4E0,1E1,1E0,2E0,7.7E1,1E0,2E0,1E0,3E1,6E0,1E0,1E1,3E0,1E1,1.1E1,7.6E1,1E0,8E0,2E0,1E1,1E0,1E0,7.5E1,7.4E1,1E0],"tree_param":{"num_deleted":"0","num_feature":"216","num_nodes":"53","size_leaf_vector":"1"}},{"base_weights":[8.101577E-3,9.580814E-2,-2.4652155E-1,1.5957648E-2,1.619309E-1,-2.7556357E-1,-2.3408863E-3,-6.5977527E-3,4.7174975E-2,-2.4899414E-2,1.7728518E-1,-2.824473E-1,-0E0,-4.995827E-2,5.018729E-3,8.0088966E-2,-0E0,-0E0,-3.3244614E-3,1.9403253E-1,7.301015E-3,-0E0,-2.8604358E-1,-0E0,-5.9918117E-2,-6.169975E-4,3.7114803E-2,-0E0,1.0173888E-1,-6.377331E-4,1.5504973E-2,-0E0,1.9781588E-1,7.8760047E-4,-0E0,-0E0,-2.896502E-1,-0E0,-2.1903538E-3,-0E0,-1.5228242E-2,5.487142E-2,-0E0,-0E0,1.11911096E-1,8.8744494E-4,-0E0,2.014531E-1,-0E0,-8.800344E-3,-0E0,-0E0,-6.349715E-4,1.9449553E-3,-0E0,3.4853586E-3,-0E0,2.050404E-1,-0E0,6.3105742E-3,-0E0],"categories":[],"categories_nodes":[],"categories_segments":[],"categories_sizes":[],"default_left":[0,0,0,0,0,0,0,0,0,0,0,0,0,0,0,0,0,0,0,0,0,0,0,0,0,0,0,0,0,0,0,0,0,0,0,0,0,0,0,0,0,0,0,0,0,0,0,0,0,0,0,0,0,0,0,0,0,0,0,0,0],"id":9,"left_children":[1,3,5,7,9,11,-1,13,15,17,19,21,-1,23,25,27,29,-1,-1,31,33,-1,35,-1,37,39,41,-1,43,-1,45,-1,47,-1,-1,-1,49,-1,-1,-1,51,53,-1,-1,55,-1,-1,57,-1,-1,-1,-1,-1,-1,-1,-1,-1,59,-1,-1,-1],"loss_changes":[4.824475E0,8.046789E-1,1.4155388E-1,6.6701606E-2,2.9970217E-1,1.3301134E-2,0E0,3.3880457E-2,5.0130904E-2,3.3120263E-2,1.7161942E-1,6.0904026E-3,0E0,8.14056E-3,1.5856128E-2,4.1264504E-2,5.6251227E-3,0E0,0E0,2.9960394E-2,4.980859E-3,0E0,3.3078194E-3,0E0,4.894335E-3,2.776701E-3,1.3578625E-2,0E0,1.1897817E-2,0E0,6.2600565E-3,0E0,2.1941423E-2,0E0,0E0,0E0,2.2602081E-3,0E0,0E0,0E0,2.1450717E-3,3.5166163E-3,0E0,0E0,1.1032224E-3,0E0,0E0,1.6533613E-2,0E0,0E0,0E0,0E0,0E0,0E0,0E0,0E0,0E0,1.50978565E-2,0E0,0E0,0E0],"parents":[2147483647,0,0,1,1,2,2,3,3,4,4,5,5,7,7,8,8,9,9,10,10,11,11,13,13,14,14,15,15,16,16,19,19,20,20,22,22,24,24,25,25,26,26,28,28,30,30,32,32,36,36,40,40,41,41,44,44,47,47,57,57],"right_children":[2,4,6,8,10,12,-1,14,16,18,20,22,-1,24,26,28,30,-1,-1,32,34,-1,36,-1,38,40,42,-1,44,-1,46,-1,48,-1,-1,-1,50,-1,-1,-1,52,54,-1,-1,56,-1,-1,58,-1,-1,-1,-1,-1,-1,-1,-1,-1,60,-1,-1,-1],"split_conditions":[9.227328E-1,4.0591642E-1,-6.0032064E-1,3.742743E-2,-1.2533519E0,1.4941453E0,-2.3408863E-3,2.0142373E-1,-2.8445727E-1,7.729424E-1,-3.516163E-1,-2.1973011E0,-0E0,-6.242532E-1,-2.3611698E-1,2.0552978E-2,5.1939033E-2,-0E0,-3.3244614E-3,-2.8239998E-1,-8.124138E-2,-0E0,-1.7915769E0,-0E0,-6.55998E-1,-3.1557104E-1,8.429301E-1,-0E0,-1.1913469E0,-6.377331E-4,2.0987494E0,-0E0,1.2259039E0,7.8760047E-4,-0E0,-0E0,-8.643112E-2,-0E0,-2.1903538E-3,-0E0,-4.3211213E-1,1.063357E0,-0E0,-0E0,-3.2150313E-1,8.8744494E-4,-0E0,2.193504E0,-0E0,-8.800344E-3,-0E0,-0E0,-6.349715E-4,1.9449553E-3,-0E0,3.4853586E-3,-0E0,1.1983372E0,-0E0,6.3105742E-3,-0E0],"split_indices":[1,180,89,8,131,115,0,24,11,0,1,60,0,131,13,36,206,0,0,106,1,0,6,0,122,125,11,0,11,0,86,0,204,0,0,0,39,0,0,0,16,42,0,0,11,0,0,113,0,0,0,0,0,0,0,0,0,132,0,0,0],"split_type":[0,0,0,0,0,0,0,0,0,0,0,0,0,0,0,0,0,0,0,0,0,0,0,0,0,0,0,0,0,0,0,0,0,0,0,0,0,0,0,0,0,0,0,0,0,0,0,0,0,0,0,0,0,0,0,0,0,0,0,0,0],"sum_hessian":[2.16E2,1.62E2,5.4E1,7.6E1,8.6E1,4.4E1,1E1,3.9E1,3.7E1,5E0,8.1E1,4.2E1,2E0,1.3E1,2.6E1,2E1,1.7E1,3E0,2E0,7.2E1,9E0,1E0,4.1E1,2E0,1.1E1,1.5E1,1.1E1,4E0,1.6E1,4E0,1.3E1,2E0,7E1,7E0,2E0,1E0,4E1,3E0,8E0,4E0,1.1E1,9E0,2E0,2E0,1.4E1,1E1,3E0,6.8E1,2E0,3.9E1,1E0,1E0,1E1,7E0,2E0,1.3E1,1E0,6.6E1,2E0,6.3E1,3E0],"tree_param":{"num_deleted":"0","num_feature":"216","num_nodes":"61","size_leaf_vector":"1"}},{"base_weights":[-0E0,-2.586008E-1,8.412855E-2,-1.0003808E-2,-1.8949874E-1,4.148426E-3,1.5361992E-1,-0E0,-5.801944E-3,-1.0556487E-2,5.9037343E-2,1.6297254E-1,-1.3204858E-2,4.4887144E-2,-3.0760702E-2,8.360708E-2,-0E0,-0E0,1.6691674E-1,-0E0,-2.4446505E-3,-0E0,5.881207E-2,-4.9723845E-2,1.247951E-4,1.08512394E-1,-0E0,-0E0,1.7065734E-1,-0E0,1.9293947E-3,-6.7864776E-2,-0E0,1.5551984E-2,-0E0,-0E0,3.6940326E-3,-0E0,1.7451058E-1,-8.1605814E-2,-0E0,7.388606E-4,-0E0,1.7605926E-1,-0E0,-2.819327E-3,-0E0,5.36335E-3,-0E0],"categories":[],"categories_nodes":[],"categories_segments":[],"categories_sizes":[],"default_left":[0,0,0,0,0,0,0,0,0,0,0,0,0,0,0,0,0,0,0,0,0,0,0,0,0,0,0,0,0,0,0,0,0,0,0,0,0,0,0,0,0,0,0,0,0,0,0,0,0],"id":10,"left_children":[1,3,5,-1,7,9,11,-1,-1,13,15,17,19,21,23,25,-1,-1,27,-1,-1,-1,29,31,33,35,-1,-1,37,-1,-1,39,-1,41,-1,-1,-1,-1,43,45,-1,-1,-1,47,-1,-1,-1,-1,-1],"loss_changes":[4.89544E0,6.443405E-2,9.079957E-1,0E0,1.1868477E-2,8.215984E-2,1.8750477E-1,0E0,0E0,6.659492E-2,4.9143627E-2,5.747795E-2,1.9223582E-2,1.1854336E-2,4.4170223E-2,3.902656E-2,0E0,0E0,4.9083948E-2,0E0,0E0,0E0,3.314361E-3,4.208216E-2,2.6602885E-3,1.7095864E-2,0E0,0E0,1.9029379E-2,0E0,0E0,3.2924503E-2,0E0,2.798643E-3,0E0,0E0,0E0,0E0,1.2436628E-2,1.8979758E-2,0E0,0E0,0E0,1.2298346E-2,0E0,0E0,0E0,0E0,0E0],"parents":[2147483647,0,0,1,1,2,2,4,4,5,5,6,6,9,9,10,10,11,11,12,12,13,13,14,14,15,15,18,18,22,22,23,23,24,24,25,25,28,28,31,31,33,33,38,38,39,39,43,43],"right_children":[2,4,6,-1,8,10,12,-1,-1,14,16,18,20,22,24,26,-1,-1,28,-1,-1,-1,30,32,34,36,-1,-1,38,-1,-1,40,-1,42,-1,-1,-1,-1,44,46,-1,-1,-1,48,-1,-1,-1,-1,-1],"split_conditions":[-5.302225E-1,-1.5019175E0,2.6320365E-1,-1.0003808E-2,-7.8475523E-1,1.1724982E0,1.2259039E0,-0E0,-5.801944E-3,-1.1774398E0,8.619643E-1,-2.098972E-1,4.0452552E-1,-3.9290363E-1,1.0210799E0,7.716323E-1,-0E0,-0E0,-2.0379882E0,-0E0,-2.4446505E-3,-0E0,-3.3622935E-1,1.0764706E0,-4.3382552E-1,-1.951582E0,-0E0,-0E0,-1.1913469E0,-0E0,1.9293947E-3,1.3082391E0,-0E0,3.4170374E-1,-0E0,-0E0,3.6940326E-3,-0E0,1.6812963E0,1.2233824E0,-0E0,7.388606E-4,-0E0,1.6174626E0,-0E0,-2.819327E-3,-0E0,5.36335E-3,-0E0],"split_indices":[125,161,214,0,14,102,204,0,0,78,205,161,0,36,3,97,0,0,116,0,0,0,6,59,176,7,0,0,11,0,0,146,0,198,0,0,0,0,8,113,0,0,0,7,0,0,0,0,0],"split_type":[0,0,0,0,0,0,0,0,0,0,0,0,0,0,0,0,0,0,0,0,0,0,0,0,0,0,0,0,0,0,0,0,0,0,0,0,0,0,0,0,0,0,0,0,0,0,0,0,0],"sum_hessian":[2.25E2,5.4E1,1.71E2,2.2E1,3.2E1,8.2E1,8.9E1,1E0,3.1E1,6.1E1,2.1E1,8.6E1,3E0,1.2E1,4.9E1,1.7E1,4E0,2E0,8.4E1,1E0,2E0,2E0,1E1,3.6E1,1.3E1,1.3E1,4E0,2E0,8.2E1,1E0,9E0,2.8E1,8E0,1E1,3E0,2E0,1.1E1,3E0,7.9E1,2.4E1,4E0,8E0,2E0,7.8E1,1E0,2E1,4E0,7.6E1,2E0],"tree_param":{"num_deleted":"0","num_feature":"216","num_nodes":"49","size_leaf_vector":"1"}},{"base_weights":[-1.4285475E-3,9.1620274E-2,-2.4305388E-1,5.3460286E-3,1.5944104E-1,-9.945205E-3,-1.815009E-1,-1.8826729E-2,4.1377723E-2,-0E0,1.6578008E-1,-1.8717664E-1,-0E0,-5.191775E-2,-0E0,-0E0,5.8855347E-2,9.5936656E-2,1.997674E-1,-0E0,-5.7039172E-3,-0E0,-6.984691E-2,-1.41033335E-2,4.5241177E-2,-5.5278715E-4,-0E0,-0E0,6.5846816E-2,1.1107564E-1,-0E0,-0E0,2.0284206E-1,-0E0,-2.1960381E-3,-0E0,-2.4363805E-2,1.7010871E-3,-0E0,7.2076805E-2,-0E0,1.1757751E-1,-0E0,-0E0,2.0603083E-1,-0E0,-8.6296356E-4,7.921531E-2,-0E0,1.21268846E-1,-0E0,2.1131806E-1,-0E0,-0E0,2.449301E-3,-0E0,3.7455955E-3,6.4262575E-3,-0E0],"categories":[],"categories_nodes":[],"categories_segments":[],"categories_sizes":[],"default_left":[0,0,0,0,0,0,0,0,0,0,0,0,0,0,0,0,0,0,0,0,0,0,0,0,0,0,0,0,0,0,0,0,0,0,0,0,0,0,0,0,0,0,0,0,0,0,0,0,0,0,0,0,0,0,0,0,0,0,0],"id":11,"left_children":[1,3,5,7,9,-1,11,13,15,-1,17,19,-1,21,23,25,27,29,31,-1,-1,-1,33,35,37,-1,-1,-1,39,41,-1,-1,43,-1,-1,-1,45,-1,-1,47,-1,49,-1,-1,51,-1,-1,53,-1,55,-1,57,-1,-1,-1,-1,-1,-1,-1],"loss_changes":[4.744153E0,8.2738936E-1,1.0715699E-1,6.76423E-2,1.14084244E-1,0E0,1.1538029E-2,3.5403665E-2,4.049082E-2,0E0,8.20272E-2,5.0883293E-3,0E0,1.4903534E-2,2.0807724E-2,1.3581052E-3,1.5740216E-2,3.546363E-2,2.0749092E-2,0E0,0E0,0E0,8.7943673E-4,3.549101E-3,7.300878E-3,0E0,0E0,0E0,1.1950716E-2,1.1004597E-2,0E0,0E0,2.1437883E-2,0E0,0E0,0E0,1.5111123E-3,0E0,0E0,7.094778E-3,0E0,6.4537525E-3,0E0,0E0,1.6607046E-2,0E0,0E0,1.5364587E-3,0E0,4.7019124E-3,0E0,1.0694504E-2,0E0,0E0,0E0,0E0,0E0,0E0,0E0],"parents":[2147483647,0,0,1,1,2,2,3,3,4,4,6,6,7,7,8,8,10,10,11,11,13,13,14,14,15,15,16,16,17,17,18,18,22,22,23,23,24,24,28,28,29,29,32,32,36,36,39,39,41,41,44,44,47,47,49,49,51,51],"right_children":[2,4,6,8,10,-1,12,14,16,-1,18,20,-1,22,24,26,28,30,32,-1,-1,-1,34,36,38,-1,-1,-1,40,42,-1,-1,44,-1,-1,-1,46,-1,-1,48,-1,50,-1,-1,52,-1,-1,54,-1,56,-1,58,-1,-1,-1,-1,-1,-1,-1],"split_conditions":[9.0511745E-1,3.1686243E-1,-1.483997E0,5.1939033E-2,-1.1924647E0,-9.945205E-3,1.634309E0,-4.4536677E-1,-1.2791375E0,-0E0,7.86243E-1,9.3198824E-1,-0E0,-5.4367715E-1,-2.3611698E-1,1.4113865E0,-1.2394142E0,1.5013396E0,-1.477799E0,-0E0,-5.7039172E-3,-0E0,-2.0379882E0,-3.616E-1,1.0025841E0,-5.5278715E-4,-0E0,-0E0,1.3638906E0,1.2784554E0,-0E0,-0E0,-1.3478034E0,-0E0,-2.1960381E-3,-0E0,-4.7121766E-1,1.7010871E-3,-0E0,2.2284229E0,-0E0,8.613444E-1,-0E0,-0E0,1.589219E0,-0E0,-8.6296356E-4,-1.8654715E0,-0E0,-2.5897946E0,-0E0,1.9149241E0,-0E0,-0E0,2.449301E-3,-0E0,3.7455955E-3,6.4262575E-3,-0E0],"split_indices":[1,190,35,8,209,0,169,62,115,0,196,1,0,32,13,5,95,84,13,0,0,0,8,70,25,0,0,0,101,164,0,0,23,0,0,0,20,0,0,140,0,20,0,0,62,0,0,6,0,98,0,83,0,0,0,0,0,0,0],"split_type":[0,0,0,0,0,0,0,0,0,0,0,0,0,0,0,0,0,0,0,0,0,0,0,0,0,0,0,0,0,0,0,0,0,0,0,0,0,0,0,0,0,0,0,0,0,0,0,0,0,0,0,0,0,0,0,0,0,0,0],"sum_hessian":[2.07E2,1.49E2,5.8E1,6.8E1,8.1E1,2E1,3.8E1,3.6E1,3.2E1,2E0,7.9E1,3.6E1,2E0,1.7E1,1.9E1,5E0,2.7E1,3E1,4.9E1,1E0,3.5E1,5E0,1.2E1,1.1E1,8E0,3E0,2E0,2E0,2.5E1,2.5E1,5E0,1E0,4.8E1,1E0,1.1E1,2E0,9E0,7E0,1E0,2.3E1,2E0,2.3E1,2E0,1E0,4.7E1,1E0,8E0,2E1,3E0,2.2E1,1E0,4.5E1,2E0,1E0,1.9E1,1E0,2.1E1,4.4E1,1E0],"tree_param":{"num_deleted":"0","num_feature":"216","num_nodes":"59","size_leaf_vector":"1"}},{"base_weights":[1.2075414E-3,7.816752E-2,-2.2548687E-1,1.3488897E-2,1.24989904E-1,-2.5733995E-1,-2.1063148E-3,5.9486393E-2,-0E0,-0E0,1.4383988E-1,-0E0,-2.6203805E-1,7.537718E-2,-0E0,-1.4117021E-2,5.3432945E-2,3.7526004E-2,-3.3899478E-3,2.3784572E-2,1.5465008E-1,-7.963828E-3,-0E0,-0E0,2.4921265E-3,-0E0,-5.1109456E-2,-0E0,2.554438E-3,-0E0,2.124853E-3,8.4635516E-4,-0E0,1.6030122E-1,-0E0,-5.8203787E-3,1.8374093E-2,-7.31452E-2,-0E0,-0E0,1.6770992E-1,-2.8447736E-2,-0E0,-0E0,9.4019214E-4,-8.014033E-2,-0E0,-0E0,1.6977903E-1,-0E0,-9.677584E-4,-0E0,-2.6198225E-3,5.154913E-3,-0E0],"categories":[],"categories_nodes":[],"categories_segments":[],"categories_sizes":[],"default_left":[0,0,0,0,0,0,0,0,0,0,0,0,0,0,0,0,0,0,0,0,0,0,0,0,0,0,0,0,0,0,0,0,0,0,0,0,0,0,0,0,0,0,0,0,0,0,0,0,0,0,0,0,0,0,0],"id":12,"left_children":[1,3,5,7,9,11,-1,13,15,17,19,-1,21,23,-1,25,27,29,-1,31,33,-1,-1,-1,-1,35,37,-1,-1,-1,-1,-1,-1,39,-1,41,43,45,-1,-1,47,49,-1,-1,-1,51,-1,-1,53,-1,-1,-1,-1,-1,-1],"loss_changes":[3.6720662E0,4.4131553E-1,1.4580679E-1,4.369962E-2,2.2847998E-1,3.3819675E-2,0E0,1.7244264E-2,4.3229017E-2,6.374824E-2,4.531932E-2,0E0,3.5583973E-3,8.9469105E-3,0E0,3.282676E-2,2.3740418E-2,2.2442855E-2,0E0,1.5061116E-3,4.74993E-2,0E0,0E0,0E0,0E0,5.606138E-3,2.2407822E-2,0E0,0E0,0E0,0E0,0E0,0E0,5.03124E-2,0E0,7.550708E-3,5.739861E-3,6.444551E-3,0E0,0E0,1.5168071E-2,1.2728283E-3,0E0,0E0,0E0,5.613588E-3,0E0,0E0,1.3922572E-2,0E0,0E0,0E0,0E0,0E0,0E0],"parents":[2147483647,0,0,1,1,2,2,3,3,4,4,5,5,7,7,8,8,9,9,10,10,12,12,13,13,15,15,16,16,17,17,19,19,20,20,25,25,26,26,33,33,35,35,36,36,37,37,40,40,41,41,45,45,48,48],"right_children":[2,4,6,8,10,12,-1,14,16,18,20,-1,22,24,-1,26,28,30,-1,32,34,-1,-1,-1,-1,36,38,-1,-1,-1,-1,-1,-1,40,-1,42,44,46,-1,-1,48,50,-1,-1,-1,52,-1,-1,54,-1,-1,-1,-1,-1,-1],"split_conditions":[9.227328E-1,2.0536236E-1,-9.1713136E-1,-6.200995E-1,-1.2870399E0,-7.8475523E-1,-2.1063148E-3,-1.8117252E-1,4.540606E-1,1.0473846E0,-9.037197E-1,-0E0,-4.0316203E-1,-9.415602E-1,-0E0,3.7848186E-1,-4.9367535E-1,-9.477147E-1,-3.3899478E-3,1.3803648E0,1.7833976E0,-7.963828E-3,-0E0,-0E0,2.4921265E-3,-5.961736E-1,9.7292984E-1,-0E0,2.554438E-3,-0E0,2.124853E-3,8.4635516E-4,-0E0,-1.222362E0,-0E0,5.346248E-1,-6.2535955E-3,1.9093636E0,-0E0,-0E0,-2.0379882E0,-2.1050167E0,-0E0,-0E0,9.4019214E-4,-6.051562E-1,-0E0,-0E0,1.7833976E0,-0E0,-9.677584E-4,-0E0,-2.6198225E-3,5.154913E-3,-0E0],"split_indices":[1,196,172,194,134,14,0,103,103,0,119,0,0,36,0,182,32,2,0,0,59,0,0,0,0,182,155,0,0,0,0,0,0,113,0,24,134,5,0,0,116,7,0,0,0,36,0,0,203,0,0,0,0,0,0],"split_type":[0,0,0,0,0,0,0,0,0,0,0,0,0,0,0,0,0,0,0,0,0,0,0,0,0,0,0,0,0,0,0,0,0,0,0,0,0,0,0,0,0,0,0,0,0,0,0,0,0,0,0,0,0,0,0],"sum_hessian":[2.11E2,1.59E2,5.2E1,7E1,8.9E1,4.1E1,1.1E1,1.5E1,5.5E1,1.1E1,7.8E1,1E0,4E1,1.2E1,3E0,4.4E1,1.1E1,8E0,3E0,9E0,6.9E1,3.9E1,1E0,1E0,1.1E1,2.9E1,1.5E1,4E0,7E0,2E0,6E0,8E0,1E0,6.6E1,3E0,1.5E1,1.4E1,1.1E1,4E0,4E0,6.2E1,9E0,6E0,4E0,1E1,1E1,1E0,1E0,6.1E1,1E0,8E0,1E0,9E0,6E1,1E0],"tree_param":{"num_deleted":"0","num_feature":"216","num_nodes":"55","size_leaf_vector":"1"}},{"base_weights":[7.635134E-3,-2.3103599E-1,8.302665E-2,-8.624575E-3,-1.477555E-1,5.304186E-3,1.4878713E-1,-0E0,-1.5165591E-1,1.1492824E-1,-3.134895E-3,-2.4585878E-2,1.615131E-1,-0E0,-4.6682293E-3,3.8078409E-3,-0E0,-2.6058737E-2,2.6253417E-2,-0E0,-3.2299883E-3,2.271766E-2,1.7456156E-1,-0E0,-4.957481E-2,4.28653E-2,-0E0,-0E0,1.8209161E-3,-0E0,1.764178E-1,-1.656549E-2,1.9365167E-2,-0E0,-5.9980754E-2,-0E0,5.338374E-2,-0E0,1.7827511E-1,-0E0,-8.7109325E-4,1.3775998E-3,-0E0,-7.0640996E-2,-0E0,1.7248185E-3,-0E0,1.8277879E-1,-0E0,-2.434224E-3,-0E0,-0E0,5.534522E-3],"categories":[],"categories_nodes":[],"categories_segments":[],"categories_sizes":[],"default_left":[0,0,0,0,0,0,0,0,0,0,0,0,0,0,0,0,0,0,0,0,0,0,0,0,0,0,0,0,0,0,0,0,0,0,0,0,0,0,0,0,0,0,0,0,0,0,0,0,0,0,0,0,0],"id":13,"left_children":[1,3,5,-1,7,9,11,-1,13,15,17,19,21,-1,-1,-1,-1,23,25,-1,-1,27,29,31,33,35,-1,-1,-1,-1,37,39,41,-1,43,-1,45,-1,47,-1,-1,-1,-1,49,-1,-1,-1,51,-1,-1,-1,-1,-1],"loss_changes":[3.6994913E0,5.7307243E-2,7.656431E-1,0E0,5.0283074E-3,1.0420789E-1,2.3038161E-1,0E0,3.7133098E-3,7.107079E-3,4.7110546E-2,3.1753752E-2,8.173609E-2,0E0,0E0,0E0,0E0,3.0883951E-2,1.9517627E-2,0E0,0E0,2.0628136E-2,1.5132904E-2,7.2442708E-3,1.7707642E-2,8.848507E-3,0E0,0E0,0E0,0E0,1.4332294E-2,4.84388E-3,1.2369049E-2,0E0,2.0653814E-2,0E0,3.986139E-3,0E0,1.197505E-2,0E0,0E0,0E0,0E0,5.538255E-3,0E0,0E0,0E0,7.3001385E-3,0E0,0E0,0E0,0E0,0E0],"parents":[2147483647,0,0,1,1,2,2,4,4,5,5,6,6,8,8,9,9,10,10,11,11,12,12,17,17,18,18,21,21,22,22,23,23,24,24,25,25,30,30,31,31,32,32,34,34,36,36,38,38,43,43,47,47],"right_children":[2,4,6,-1,8,10,12,-1,14,16,18,20,22,-1,-1,-1,-1,24,26,-1,-1,28,30,32,34,36,-1,-1,-1,-1,38,40,42,-1,44,-1,46,-1,48,-1,-1,-1,-1,50,-1,-1,-1,52,-1,-1,-1,-1,-1],"split_conditions":[-5.302225E-1,-1.4797666E0,2.6320365E-1,-8.624575E-3,8.489463E-1,-1.0176401E0,-1.2533519E0,-0E0,-7.8475523E-1,-2.5197637E-1,4.8734286E-1,-8.5588706E-1,4.0591642E-1,-0E0,-4.6682293E-3,3.8078409E-3,-0E0,-4.1838542E-1,5.272133E-1,-0E0,-3.2299883E-3,-2.0492005E-1,-1.3478034E0,7.546979E-2,-1.031778E0,-1.5191149E0,-0E0,-0E0,1.8209161E-3,-0E0,-1.782873E0,-1.248837E0,5.502657E-1,-0E0,1.7788374E0,-0E0,2.0407212E0,-0E0,1.4764537E0,-0E0,-8.7109325E-4,1.3775998E-3,-0E0,1.4489792E-1,-0E0,1.7248185E-3,-0E0,-1.5722585E-1,-0E0,-2.434224E-3,-0E0,-0E0,5.534522E-3],"split_indices":[125,179,214,0,1,103,131,0,14,14,29,1,180,0,0,0,0,113,6,0,0,8,23,144,59,204,0,0,0,0,92,5,89,0,59,0,47,0,43,0,0,0,0,214,0,0,0,198,0,0,0,0,0],"split_type":[0,0,0,0,0,0,0,0,0,0,0,0,0,0,0,0,0,0,0,0,0,0,0,0,0,0,0,0,0,0,0,0,0,0,0,0,0,0,0,0,0,0,0,0,0,0,0,0,0,0,0,0,0],"sum_hessian":[2.06E2,4.8E1,1.58E2,2.5E1,2.3E1,7.5E1,8.3E1,1E0,2.2E1,7E0,6.8E1,4E0,7.9E1,1E0,2.1E1,6E0,1E0,4.4E1,2.4E1,2E0,2E0,9E0,7E1,2E1,2.4E1,1.9E1,5E0,3E0,6E0,1E0,6.9E1,9E0,1.1E1,3E0,2.1E1,4E0,1.5E1,1E0,6.8E1,1E0,8E0,7E0,4E0,1.9E1,2E0,1.4E1,1E0,6.5E1,3E0,1.5E1,4E0,1E0,6.4E1],"tree_param":{"num_deleted":"0","num_feature":"216","num_nodes":"53","size_leaf_vector":"1"}},{"base_weights":[1.9316159E-3,-2.2445709E-1,8.6741E-2,-2.3390888E-1,-0E0,2.0624315E-3,1.4265975E-1,-0E0,-2.3946197E-1,-1.24080535E-2,5.6398563E-2,-0E0,1.5314898E-1,-2.4975896E-1,-1.0433393E-3,1.2653693E-2,-2.76316E-2,-0E0,3.8794116E-3,9.153871E-2,1.853372E-1,-1.2513013E-3,-2.611656E-1,-0E0,7.3883706E-4,-0E0,-5.6268815E-2,-0E0,2.3607578E-2,9.53167E-2,-0E0,1.9133641E-1,-0E0,-2.6464292E-1,-0E0,6.264637E-4,-1.663259E-2,-2.0929305E-3,-0E0,-0E0,7.812857E-4,-0E0,1.02393486E-1,-0E0,1.9439287E-1,-8.042499E-3,-0E0,-0E0,-3.868528E-2,-0E0,1.0498835E-1,1.9932759E-1,-0E0,-1.2554481E-3,-0E0,3.2084582E-3,-0E0,6.0631046E-3,-0E0],"categories":[],"categories_nodes":[],"categories_segments":[],"categories_sizes":[],"default_left":[0,0,0,0,0,0,0,0,0,0,0,0,0,0,0,0,0,0,0,0,0,0,0,0,0,0,0,0,0,0,0,0,0,0,0,0,0,0,0,0,0,0,0,0,0,0,0,0,0,0,0,0,0,0,0,0,0,0,0],"id":14,"left_children":[1,3,5,7,-1,9,11,-1,13,15,17,-1,19,21,-1,23,25,27,-1,29,31,-1,33,-1,-1,35,37,-1,39,41,-1,43,-1,45,-1,-1,47,-1,-1,-1,-1,-1,49,-1,51,-1,-1,-1,53,-1,55,57,-1,-1,-1,-1,-1,-1,-1],"loss_changes":[3.9717312E0,7.847309E-2,6.807624E-1,2.4635792E-2,0E0,6.4218245E-2,1.3852477E-1,0E0,1.3441801E-2,2.2774857E-2,4.3077856E-2,0E0,6.655419E-2,9.781837E-3,0E0,3.090993E-3,2.5575358E-2,5.01586E-3,0E0,1.4916569E-2,4.2027593E-2,0E0,8.585215E-3,0E0,0E0,7.3615075E-3,9.446792E-3,0E0,4.099831E-4,1.4718771E-2,0E0,1.9980907E-2,0E0,5.1090717E-3,0E0,0E0,9.595957E-3,0E0,0E0,0E0,0E0,0E0,5.1213205E-3,0E0,1.3795853E-2,0E0,0E0,0E0,5.4126326E-4,0E0,6.1002374E-4,1.0413766E-2,0E0,0E0,0E0,0E0,0E0,0E0,0E0],"parents":[2147483647,0,0,1,1,2,2,3,3,5,5,6,6,8,8,9,9,10,10,12,12,13,13,15,15,16,16,17,17,19,19,20,20,22,22,25,25,26,26,28,28,29,29,31,31,33,33,36,36,42,42,44,44,48,48,50,50,51,51],"right_children":[2,4,6,8,-1,10,12,-1,14,16,18,-1,20,22,-1,24,26,28,-1,30,32,-1,34,-1,-1,36,38,-1,40,42,-1,44,-1,46,-1,-1,48,-1,-1,-1,-1,-1,50,-1,52,-1,-1,-1,54,-1,56,58,-1,-1,-1,-1,-1,-1,-1],"split_conditions":[-5.2693164E-1,-3.7682772E-1,2.2949582E-1,-2.1973011E0,-0E0,1.1724982E0,-2.2366853E-1,-0E0,-2.0341372E-1,-1.1774398E0,-1.4087198E0,-0E0,5.69421E-1,-1.3244712E0,-1.0433393E-3,-2.3611698E-1,-3.8560632E-1,-1.4684702E-1,3.8794116E-3,1.37527E0,1.2990844E0,-1.2513013E-3,1.634309E0,-0E0,7.3883706E-4,-1.8385987E-1,1.4127716E0,-0E0,-1.4552413E0,-1.4211899E0,-0E0,-1.3478034E0,-0E0,-9.700707E-2,-0E0,6.264637E-4,-5.4367715E-1,-2.0929305E-3,-0E0,-0E0,7.812857E-4,-0E0,-1.1941273E0,-0E0,1.4373885E0,-8.042499E-3,-0E0,-0E0,9.210045E-1,-0E0,1.0494808E0,-6.025723E-1,-0E0,-1.2554481E-3,-0E0,3.2084582E-3,-0E0,6.0631046E-3,-0E0],"split_indices":[143,71,215,24,0,102,208,0,212,78,1,0,156,79,0,193,68,211,0,36,164,0,151,0,0,17,12,0,6,60,0,23,0,21,0,0,176,0,0,0,0,0,11,0,43,0,0,0,0,0,192,127,0,0,0,0,0,0,0],"split_type":[0,0,0,0,0,0,0,0,0,0,0,0,0,0,0,0,0,0,0,0,0,0,0,0,0,0,0,0,0,0,0,0,0,0,0,0,0,0,0,0,0,0,0,0,0,0,0,0,0,0,0,0,0,0,0,0,0,0,0],"sum_hessian":[2.07E2,5.5E1,1.52E2,5.2E1,3E0,6.3E1,8.9E1,2E0,5E1,4.6E1,1.7E1,6E0,8.3E1,4.6E1,4E0,1E1,3.6E1,1.2E1,5E0,3.3E1,5E1,4E0,4.2E1,3E0,7E0,2E1,1.6E1,4E0,8E0,3.2E1,1E0,4.8E1,2E0,4.1E1,1E0,7E0,1.3E1,1.2E1,4E0,1E0,7E0,3E0,2.9E1,1E0,4.7E1,4E1,1E0,5E0,8E0,1E0,2.8E1,4.5E1,2E0,7E0,1E0,2.7E1,1E0,4.4E1,1E0],"tree_param":{"num_deleted":"0","num_feature":"216","num_nodes":"59","size_leaf_vector":"1"}},{"base_weights":[5.4279817E-3,-2.0602874E-1,7.554738E-2,-0E0,-2.1209021E-1,2.9675015E-3,1.3588004E-1,-0E0,-2.1516046E-1,-3.8129967E-2,2.0843137E-2,-2.877304E-2,1.504628E-1,-2.1764831E-1,-0E0,-7.094275E-2,-0E0,-0E0,5.9160892E-2,-0E0,-3.2260197E-3,-0E0,1.5594982E-1,-6.602696E-3,-0E0,-0E0,-2.340228E-3,-0E0,1.5827644E-4,-2.2096591E-2,1.5290444E-3,-0E0,2.5816907E-3,-0E0,1.588801E-1,-0E0,-5.4721504E-2,-0E0,1.6177149E-1,9.567214E-3,-0E0,-6.5599576E-2,-0E0,1.6579194E-1,-0E0,-0E0,4.3169147E-4,-0E0,-2.3806253E-3,-0E0,5.0557754E-3],"categories":[],"categories_nodes":[],"categories_segments":[],"categories_sizes":[],"default_left":[0,0,0,0,0,0,0,0,0,0,0,0,0,0,0,0,0,0,0,0,0,0,0,0,0,0,0,0,0,0,0,0,0,0,0,0,0,0,0,0,0,0,0,0,0,0,0,0,0,0,0],"id":15,"left_children":[1,3,5,-1,7,9,11,-1,13,15,17,19,21,23,-1,25,27,29,31,-1,-1,-1,33,-1,-1,-1,-1,-1,-1,35,-1,-1,-1,-1,37,39,41,-1,43,45,-1,47,-1,49,-1,-1,-1,-1,-1,-1,-1],"loss_changes":[3.0604818E0,3.929043E-2,6.4981467E-1,0E0,1.7982721E-2,5.0706953E-2,2.4252832E-1,0E0,4.313946E-3,3.925726E-2,5.8802947E-2,2.9723352E-2,5.9860945E-2,1.7924309E-3,0E0,1.5096888E-3,1.3917462E-4,3.445328E-2,1.9679494E-2,0E0,0E0,0E0,1.9626975E-2,0E0,0E0,0E0,0E0,0E0,0E0,3.423983E-2,0E0,0E0,0E0,0E0,1.6267776E-2,8.237843E-4,8.031871E-3,0E0,1.2359619E-2,8.327271E-4,0E0,7.0279017E-3,0E0,6.2634945E-3,0E0,0E0,0E0,0E0,0E0,0E0,0E0],"parents":[2147483647,0,0,1,1,2,2,4,4,5,5,6,6,8,8,9,9,10,10,11,11,12,12,13,13,15,15,16,16,17,17,18,18,22,22,29,29,34,34,35,35,36,36,38,38,39,39,41,41,43,43],"right_children":[2,4,6,-1,8,10,12,-1,14,16,18,20,22,24,-1,26,28,30,32,-1,-1,-1,34,-1,-1,-1,-1,-1,-1,36,-1,-1,-1,-1,38,40,42,-1,44,46,-1,48,-1,50,-1,-1,-1,-1,-1,-1,-1],"split_conditions":[-5.2693164E-1,-1.9476478E-1,4.0591642E-1,-0E0,-7.8475523E-1,-3.0873293E-1,-1.2533519E0,-0E0,1.6004546E-1,7.8839785E-1,-1.2107221E-1,7.729424E-1,-6.457363E-1,4.0034175E-1,-0E0,-9.88693E-1,-9.5594835E-1,8.5057133E-1,3.7119436E-1,-0E0,-3.2260197E-3,-0E0,-2.4216866E0,-6.602696E-3,-0E0,-0E0,-2.340228E-3,-0E0,1.5827644E-4,-4.6524018E-1,1.5290444E-3,-0E0,2.5816907E-3,-0E0,-1.1913469E0,6.9825184E-1,3.898745E-1,-0E0,1.7833976E0,-1.171686E0,-0E0,-1.3703629E0,-0E0,-2.0672E0,-0E0,-0E0,4.3169147E-4,-0E0,-2.3806253E-3,-0E0,5.0557754E-3],"split_indices":[143,31,180,0,14,34,131,0,54,20,211,0,144,0,0,8,0,198,26,0,0,0,98,0,0,0,0,0,0,176,0,0,0,0,119,0,29,0,113,5,0,151,0,115,0,0,0,0,0,0,0],"split_type":[0,0,0,0,0,0,0,0,0,0,0,0,0,0,0,0,0,0,0,0,0,0,0,0,0,0,0,0,0,0,0,0,0,0,0,0,0,0,0,0,0,0,0,0,0,0,0,0,0,0,0],"sum_hessian":[2.07E2,5E1,1.57E2,2E0,4.8E1,7.4E1,8.3E1,1E0,4.7E1,1.7E1,5.7E1,5E0,7.8E1,4.6E1,1E0,1.2E1,5E0,3.4E1,2.3E1,3E0,2E0,3E0,7.5E1,4.5E1,1E0,2E0,1E1,1E0,4E0,2.7E1,7E0,1E1,1.3E1,2E0,7.3E1,1.2E1,1.5E1,2E0,7.1E1,8E0,4E0,1.2E1,3E0,6.8E1,3E0,1E0,7E0,3E0,9E0,2E0,6.6E1],"tree_param":{"num_deleted":"0","num_feature":"216","num_nodes":"51","size_leaf_vector":"1"}},{"base_weights":[4.984136E-3,-2.0944913E-1,7.605154E-2,-0E0,-2.1584418E-1,1.0600119E-2,1.3260032E-1,-0E0,-2.2375984E-1,-1.2459738E-2,3.930665E-2,1.4330257E-1,-2.5887256E-3,-2.2651388E-1,-0E0,6.963421E-3,-3.173647E-2,-0E0,8.3295755E-2,-0E0,1.5435897E-1,-2.2932337E-1,-0E0,-0E0,7.9288817E-4,-0E0,-4.406635E-2,-1.9696934E-2,1.5182392E-2,9.200931E-2,-0E0,-0E0,7.8334124E-4,-0E0,1.5965758E-1,-2.3512961E-1,-0E0,-1.6502362E-3,-0E0,-1.2931003E-3,-0E0,6.28857E-4,-0E0,-0E0,9.8995395E-2,-0E0,1.6252597E-1,-0E0,-7.1476116E-3,3.2321264E-3,-0E0,1.6420203E-1,-0E0,5.098324E-3,3.9244293E-5],"categories":[],"categories_nodes":[],"categories_segments":[],"categories_sizes":[],"default_left":[0,0,0,0,0,0,0,0,0,0,0,0,0,0,0,0,0,0,0,0,0,0,0,0,0,0,0,0,0,0,0,0,0,0,0,0,0,0,0,0,0,0,0,0,0,0,0,0,0,0,0,0,0,0,0],"id":16,"left_children":[1,3,5,-1,7,9,11,-1,13,15,17,19,-1,21,-1,23,25,27,29,31,33,35,-1,-1,-1,-1,37,39,41,43,-1,-1,-1,-1,45,47,-1,-1,-1,-1,-1,-1,-1,-1,49,-1,51,-1,-1,-1,-1,53,-1,-1,-1],"loss_changes":[3.023753E0,4.0091276E-2,5.182166E-1,0E0,1.3343334E-2,5.75295E-2,2.1453679E-1,0E0,3.254652E-3,2.113185E-2,7.156998E-2,8.662498E-2,0E0,2.4793148E-3,0E0,5.7533355E-3,1.2649575E-2,6.8032173E-3,1.2091666E-2,3.40902E-3,6.548846E-2,2.6905537E-3,0E0,0E0,0E0,0E0,9.576995E-3,1.0595525E-2,1.419056E-3,3.0841827E-3,0E0,0E0,0E0,0E0,1.0012627E-2,2.3913383E-3,0E0,0E0,0E0,0E0,0E0,0E0,0E0,0E0,3.8945973E-3,0E0,9.180784E-3,0E0,0E0,0E0,0E0,9.199858E-3,0E0,0E0,0E0],"parents":[2147483647,0,0,1,1,2,2,4,4,5,5,6,6,8,8,9,9,10,10,11,11,13,13,15,15,16,16,17,17,18,18,19,19,20,20,21,21,26,26,27,27,28,28,29,29,34,34,35,35,44,44,46,46,51,51],"right_children":[2,4,6,-1,8,10,12,-1,14,16,18,20,-1,22,-1,24,26,28,30,32,34,36,-1,-1,-1,-1,38,40,42,44,-1,-1,-1,-1,46,48,-1,-1,-1,-1,-1,-1,-1,-1,50,-1,52,-1,-1,-1,-1,54,-1,-1,-1],"split_conditions":[-5.302225E-1,-1.1330108E-1,2.371892E-1,-0E0,-1.2134011E0,1.3521197E-1,1.2259039E0,-0E0,2.2447133E-1,-8.762584E-1,-1.9434668E-1,3.57831E-1,-2.5887256E-3,1.4941453E0,-0E0,-1.5844401E0,-1.4248405E0,-7.91438E-2,2.2284229E0,-2.0492005E-1,-1.5722585E-1,-1.5245327E-1,-0E0,-0E0,7.9288817E-4,-0E0,4.8734286E-1,-3.133551E-1,6.984183E-1,-1.4771895E0,-0E0,-0E0,7.8334124E-4,-0E0,-1.5979526E0,-1.7775904E0,-0E0,-1.6502362E-3,-0E0,-1.2931003E-3,-0E0,6.28857E-4,-0E0,-0E0,5.561431E-1,-0E0,2.5085928E0,-0E0,-7.1476116E-3,3.2321264E-3,-0E0,1.1268687E0,-0E0,5.098324E-3,3.9244293E-5],"split_indices":[125,193,214,0,149,168,204,0,10,132,178,180,0,151,0,114,205,17,212,8,198,212,0,0,0,0,29,162,8,44,0,0,0,0,49,20,0,0,0,0,0,0,0,0,139,0,3,0,0,0,0,204,0,0,0],"split_type":[0,0,0,0,0,0,0,0,0,0,0,0,0,0,0,0,0,0,0,0,0,0,0,0,0,0,0,0,0,0,0,0,0,0,0,0,0,0,0,0,0,0,0,0,0,0,0,0,0,0,0,0,0,0,0],"sum_hessian":[1.99E2,4.8E1,1.51E2,2E0,4.6E1,7.3E1,7.8E1,3E0,4.3E1,3.5E1,3.8E1,7.6E1,2E0,4.2E1,1E0,1E1,2.5E1,2E1,1.8E1,7E0,6.9E1,4.1E1,1E0,2E0,8E0,6E0,1.9E1,1E1,1E1,1.6E1,2E0,3E0,4E0,2E0,6.7E1,3.9E1,2E0,1.5E1,4E0,7E0,3E0,8E0,2E0,2E0,1.4E1,2E0,6.5E1,1E0,3.8E1,1.2E1,2E0,6.4E1,1E0,6E1,4E0],"tree_param":{"num_deleted":"0","num_feature":"216","num_nodes":"55","size_leaf_vector":"1"}},{"base_weights":[-0E0,-2.1212733E-1,7.014173E-2,-8.6667035E-3,-1.436065E-1,9.2642335E-3,1.21308446E-1,-0E0,-4.3870835E-3,-0E0,2.0232836E-3,-2.8690645E-2,1.3531736E-1,5.697934E-2,-6.307764E-3,-0E0,-3.1356113E-3,-0E0,1.439149E-1,-0E0,2.159951E-3,-2.8495865E-2,1.758161E-2,-0E0,1.4825746E-1,-0E0,-5.032064E-2,-0E0,4.4824917E-2,1.5364824E-1,-0E0,2.8028265E-3,-0E0,-0E0,-6.993816E-2,-0E0,1.7839277E-3,-0E0,1.556166E-1,1.534456E-4,-0E0,-0E0,-2.5350375E-3,-0E0,4.7260458E-3],"categories":[],"categories_nodes":[],"categories_segments":[],"categories_sizes":[],"default_left":[0,0,0,0,0,0,0,0,0,0,0,0,0,0,0,0,0,0,0,0,0,0,0,0,0,0,0,0,0,0,0,0,0,0,0,0,0,0,0,0,0,0,0,0,0],"id":17,"left_children":[1,3,5,-1,7,9,11,-1,-1,13,-1,15,17,19,21,-1,-1,-1,23,-1,-1,25,27,-1,29,31,33,-1,35,37,-1,39,-1,-1,41,-1,-1,-1,43,-1,-1,-1,-1,-1,-1],"loss_changes":[3.0623968E0,9.701681E-2,4.4562906E-1,0E0,2.2425056E-3,3.904835E-2,2.0817888E-1,0E0,0E0,2.5113791E-2,0E0,2.783461E-2,1.0200882E-1,8.376073E-3,3.5578873E-2,0E0,0E0,0E0,4.866028E-2,0E0,0E0,3.2447632E-2,1.2983131E-2,0E0,2.1121621E-2,6.284669E-5,2.9631406E-2,0E0,4.659256E-3,1.6569495E-2,0E0,1.202854E-4,0E0,0E0,1.417134E-2,0E0,0E0,0E0,1.4829278E-2,0E0,0E0,0E0,0E0,0E0,0E0],"parents":[2147483647,0,0,1,1,2,2,4,4,5,5,6,6,9,9,11,11,12,12,13,13,14,14,18,18,21,21,22,22,24,24,25,25,26,26,28,28,29,29,31,31,34,34,38,38],"right_children":[2,4,6,-1,8,10,12,-1,-1,14,-1,16,18,20,22,-1,-1,-1,24,-1,-1,26,28,-1,30,32,34,-1,36,38,-1,40,-1,-1,42,-1,-1,-1,44,-1,-1,-1,-1,-1,-1],"split_conditions":[-5.302225E-1,-1.5068078E0,4.0591642E-1,-8.6667035E-3,-1.483997E0,8.5057133E-1,-1.2533519E0,-0E0,-4.3870835E-3,-1.0176401E0,2.0232836E-3,7.729424E-1,-6.7301327E-1,-1.2870399E0,4.8734286E-1,-0E0,-3.1356113E-3,-0E0,-1.8602625E0,-0E0,2.159951E-3,-6.242532E-1,1.1152069E-1,-0E0,2.289751E0,-6.891111E-2,-1.9448997E-1,-0E0,-4.9112347E-1,-2.0379882E0,-0E0,6.874468E-1,-0E0,-0E0,-6.200995E-1,-0E0,1.7839277E-3,-0E0,-2.1200638E0,1.534456E-4,-0E0,-0E0,-2.5350375E-3,-0E0,4.7260458E-3],"split_indices":[125,161,180,0,17,198,131,0,0,103,0,0,144,8,29,0,0,0,78,0,0,131,44,0,3,29,18,0,49,116,0,0,0,0,176,0,0,0,36,0,0,0,0,0,0],"split_type":[0,0,0,0,0,0,0,0,0,0,0,0,0,0,0,0,0,0,0,0,0,0,0,0,0,0,0,0,0,0,0,0,0,0,0,0,0,0,0,0,0,0,0,0,0],"sum_hessian":[2.05E2,5E1,1.55E2,2E1,3E1,7.4E1,8.1E1,1E0,2.9E1,6.5E1,9E0,5E0,7.6E1,6E0,5.9E1,3E0,2E0,4E0,7.2E1,1E0,5E0,3.7E1,2.2E1,2E0,7E1,1.3E1,2.4E1,1.3E1,9E0,6.6E1,4E0,7E0,6E0,6E0,1.8E1,3E0,6E0,1E0,6.5E1,6E0,1E0,4E0,1.4E1,1E0,6.4E1],"tree_param":{"num_deleted":"0","num_feature":"216","num_nodes":"45","size_leaf_vector":"1"}},{"base_weights":[-2.5896385E-4,-2.1474797E-1,7.2050184E-2,-8.511542E-3,-4.408035E-3,5.9479796E-3,1.2460265E-1,-1.74613E-2,3.37824E-2,1.3513497E-1,-5.009328E-2,-3.277961E-2,-0E0,-0E0,6.190225E-2,-0E0,1.4027251E-1,-3.0729002E-3,-0E0,-4.5727953E-2,-0E0,2.3267756E-3,-2.2850368E-2,-0E0,8.449527E-2,-0E0,1.4255796E-1,-0E0,-5.4084495E-2,3.0675106E-4,-0E0,-0E0,-7.584158E-4,-0E0,9.4071314E-2,1.4392549E-1,-0E0,-0E0,-6.547192E-2,2.9305224E-3,-0E0,-0E0,1.4710918E-1,-2.0521022E-3,-0E0,4.450092E-3,-0E0],"categories":[],"categories_nodes":[],"categories_segments":[],"categories_sizes":[],"default_left":[0,0,0,0,0,0,0,0,0,0,0,0,0,0,0,0,0,0,0,0,0,0,0,0,0,0,0,0,0,0,0,0,0,0,0,0,0,0,0,0,0,0,0,0,0,0,0],"id":18,"left_children":[1,3,5,-1,-1,7,9,11,13,15,17,19,-1,21,23,-1,25,-1,-1,27,-1,29,31,-1,33,-1,35,-1,37,-1,-1,-1,-1,-1,39,41,-1,-1,43,-1,-1,-1,45,-1,-1,-1,-1],"loss_changes":[3.361809E0,8.635688E-2,5.124333E-1,0E0,0E0,5.3703412E-2,1.9051754E-1,1.4042175E-2,4.63153E-2,5.8409452E-2,2.1438373E-2,1.7107343E-2,0E0,3.7145282E-3,3.6544777E-2,0E0,1.1065841E-2,0E0,0E0,7.906336E-3,0E0,7.7685807E-4,1.7965422E-4,0E0,1.30805075E-2,0E0,9.843826E-3,0E0,1.0284759E-2,0E0,0E0,0E0,0E0,0E0,1.5420914E-3,6.422162E-3,0E0,0E0,8.153245E-4,0E0,0E0,0E0,4.8271418E-3,0E0,0E0,0E0,0E0],"parents":[2147483647,0,0,1,1,2,2,5,5,6,6,7,7,8,8,9,9,10,10,11,11,13,13,14,14,16,16,19,19,21,21,22,22,24,24,26,26,28,28,34,34,35,35,38,38,42,42],"right_children":[2,4,6,-1,-1,8,10,12,14,16,18,20,-1,22,24,-1,26,-1,-1,28,-1,30,32,-1,34,-1,36,-1,38,-1,-1,-1,-1,-1,40,42,-1,-1,44,-1,-1,-1,46,-1,-1,-1,-1],"split_conditions":[-6.5009344E-1,-1.5019175E0,4.0452552E-1,-8.511542E-3,-4.408035E-3,-3.0119634E-1,1.6770328E0,1.0419637E0,-1.4209302E-1,-7.91438E-2,1.1675458E0,8.429301E-1,-0E0,-3.0212873E-1,-1.171686E0,-0E0,-2.2470598E0,-3.0729002E-3,-0E0,-4.727024E-1,-0E0,2.6317188E-1,-6.7871225E-1,-0E0,-1.2489825E0,-0E0,1.9588933E0,-0E0,-7.196316E-1,3.0675106E-4,-0E0,-0E0,-7.584158E-4,-0E0,1.3279003E0,-9.0482163E-1,-0E0,-0E0,8.633571E-1,2.9305224E-3,-0E0,-0E0,1.5883876E0,-2.0521022E-3,-0E0,4.450092E-3,-0E0],"split_indices":[178,161,180,0,0,203,54,74,178,179,0,47,0,104,95,0,78,0,0,126,0,0,3,0,5,0,167,0,211,0,0,0,0,0,44,173,0,0,17,0,0,0,2,0,0,0,0],"split_type":[0,0,0,0,0,0,0,0,0,0,0,0,0,0,0,0,0,0,0,0,0,0,0,0,0,0,0,0,0,0,0,0,0,0,0,0,0,0,0,0,0,0,0,0,0,0,0],"sum_hessian":[2.12E2,5.4E1,1.58E2,2.3E1,3.1E1,7.3E1,8.5E1,3.4E1,3.9E1,8.2E1,3E0,2.2E1,1.2E1,1.6E1,2.3E1,3E0,7.9E1,2E0,1E0,1.9E1,3E0,1E1,6E0,6E0,1.7E1,2E0,7.7E1,3E0,1.6E1,7E0,3E0,1E0,5E0,2E0,1.5E1,7.6E1,1E0,3E0,1.3E1,1.4E1,1E0,3E0,7.3E1,1.2E1,1E0,7.2E1,1E0],"tree_param":{"num_deleted":"0","num_feature":"216","num_nodes":"47","size_leaf_vector":"1"}},{"base_weights":[-1.9864166E-4,-1.9479334E-1,6.2780716E-2,-0E0,-2.0212035E-1,-0E0,1.1885339E-1,-0E0,-2.0453756E-1,4.6924807E-2,-7.580305E-3,1.3053797E-1,-2.9533733E-2,-2.0693551E-1,-0E0,-0E0,7.2641246E-2,4.7690094E-2,-1.9094076E-2,-0E0,1.3674256E-1,-0E0,-2.2836921E-3,-0E0,-2.0919071E-1,2.3500137E-3,-0E0,-0E0,1.8348272E-3,-0E0,-4.5403685E-2,1.4674708E-1,7.8114093E-4,-2.1384792E-1,-0E0,1.0178941E-2,-1.9646078E-2,-6.870648E-2,-0E0,1.4987308E-1,-0E0,-2.1634036E-1,-0E0,-0E0,3.3217855E-2,-0E0,-2.89711E-2,-7.8712836E-2,-0E0,-0E0,1.5300745E-1,-0E0,-6.5682433E-3,-1.3976745E-4,-0E0,-0E0,1.2085302E-3,-1.0933E-3,-0E0,-2.503103E-3,-0E0,-0E0,4.6474203E-3],"categories":[],"categories_nodes":[],"categories_segments":[],"categories_sizes":[],"default_left":[0,0,0,0,0,0,0,0,0,0,0,0,0,0,0,0,0,0,0,0,0,0,0,0,0,0,0,0,0,0,0,0,0,0,0,0,0,0,0,0,0,0,0,0,0,0,0,0,0,0,0,0,0,0,0,0,0,0,0,0,0,0,0],"id":19,"left_children":[1,3,5,-1,7,9,11,-1,13,15,17,19,21,23,-1,-1,25,27,29,-1,31,-1,-1,-1,33,-1,-1,-1,-1,35,37,39,-1,41,-1,43,45,47,-1,49,-1,51,-1,53,55,-1,57,59,-1,-1,61,-1,-1,-1,-1,-1,-1,-1,-1,-1,-1,-1,-1],"loss_changes":[2.6377327E0,3.157592E-2,5.4578316E-1,0E0,7.31349E-3,3.2360155E-2,1.780653E-1,0E0,5.525589E-3,1.3588818E-2,3.369589E-2,7.491541E-2,1.8817682E-2,1.2845993E-3,0E0,0E0,7.392764E-4,6.523527E-3,3.0026924E-2,0E0,2.8517008E-2,0E0,0E0,0E0,1.1367798E-3,0E0,0E0,0E0,0E0,7.118281E-3,2.8712511E-2,1.720059E-2,0E0,1.4467239E-3,0E0,1.4064728E-2,3.761625E-3,1.2685783E-2,0E0,1.4884591E-2,0E0,1.8815994E-3,0E0,1.7364392E-4,2.9225498E-3,0E0,9.0357196E-4,4.528068E-3,0E0,0E0,1.2986898E-2,0E0,0E0,0E0,0E0,0E0,0E0,0E0,0E0,0E0,0E0,0E0,0E0],"parents":[2147483647,0,0,1,1,2,2,4,4,5,5,6,6,8,8,9,9,10,10,11,11,12,12,13,13,16,16,17,17,18,18,20,20,24,24,29,29,30,30,31,31,33,33,35,35,36,36,37,37,39,39,41,41,43,43,44,44,46,46,47,47,50,50],"right_children":[2,4,6,-1,8,10,12,-1,14,16,18,20,22,24,-1,-1,26,28,30,-1,32,-1,-1,-1,34,-1,-1,-1,-1,36,38,40,-1,42,-1,44,46,48,-1,50,-1,52,-1,54,56,-1,58,60,-1,-1,62,-1,-1,-1,-1,-1,-1,-1,-1,-1,-1,-1,-1],"split_conditions":[-5.302225E-1,-1.1330108E-1,4.0591642E-1,-0E0,-1.3485415E0,-6.797965E-1,1.2259039E0,-0E0,1.6004546E-1,-1.433134E0,-9.8364854E-1,-1.1924647E0,-1.2793499E0,-2.1973011E0,-0E0,-0E0,9.4754285E-1,-1.2870399E0,1.6004546E-1,-0E0,-3.820511E-1,-0E0,-2.2836921E-3,-0E0,-2.0341372E-1,2.3500137E-3,-0E0,-0E0,1.8348272E-3,7.325821E-2,1.0818628E0,1.5883876E0,7.8114093E-4,1.634309E0,-0E0,-3.403201E-1,-1.468849E0,8.385266E-1,-0E0,-2.2470598E0,-0E0,-1.7775904E0,-0E0,-1.5616669E-1,2.5849095E-1,-0E0,8.964268E-1,1.3990223E0,-0E0,-0E0,-1.1913469E0,-0E0,-6.5682433E-3,-1.3976745E-4,-0E0,-0E0,1.2085302E-3,-1.0933E-3,-0E0,-2.503103E-3,-0E0,-0E0,4.6474203E-3],"split_indices":[125,193,180,0,59,3,204,0,54,1,103,119,1,78,0,0,18,8,108,0,1,0,0,0,212,0,0,0,0,180,3,164,0,133,0,160,6,116,0,78,0,20,0,53,6,0,8,2,0,0,173,0,0,0,0,0,0,0,0,0,0,0,0],"split_type":[0,0,0,0,0,0,0,0,0,0,0,0,0,0,0,0,0,0,0,0,0,0,0,0,0,0,0,0,0,0,0,0,0,0,0,0,0,0,0,0,0,0,0,0,0,0,0,0,0,0,0,0,0,0,0,0,0,0,0,0,0,0,0],"sum_hessian":[2.1E2,5.2E1,1.58E2,3E0,4.9E1,7.6E1,8.2E1,1E0,4.8E1,1.2E1,6.4E1,7.8E1,4E0,4.7E1,1E0,5E0,7E0,6E0,5.8E1,3E0,7.5E1,1E0,3E0,1E0,4.6E1,6E0,1E0,1E0,5E0,3.4E1,2.4E1,6.6E1,9E0,4.4E1,2E0,2.3E1,1.1E1,1.6E1,8E0,6.4E1,2E0,4.3E1,1E0,9E0,1.4E1,2E0,9E0,1.4E1,2E0,2E0,6.2E1,1E0,4.2E1,7E0,2E0,3E0,1.1E1,6E0,3E0,1.3E1,1E0,1E0,6.1E1],"tree_param":{"num_deleted":"0","num_feature":"216","num_nodes":"63","size_leaf_vector":"1"}},{"base_weights":[-0E0,-1.9920775E-1,6.311698E-2,-2.0193124E-1,-0E0,-0E0,1.14786915E-1,-2.0459656E-1,-0E0,-1.1605134E-2,4.2303704E-2,-0E0,1.2109736E-1,-2.091437E-1,-0E0,1.5144635E-2,-2.9078089E-2,6.84211E-2,-0E0,-0E0,1.2840156E-1,-0E0,-2.1394381E-1,3.8961854E-2,-0E0,-5.020466E-2,-0E0,8.562692E-2,-0E0,1.3146363E-4,-0E0,-0E0,1.3178022E-1,-2.1662806E-1,-0E0,1.3497404E-3,-0E0,-0E0,-6.594628E-2,1.8412769E-3,-6.3362386E-4,2.7232808E-3,-0E0,-0E0,1.34847E-1,-2.2454672E-1,-1.2975722E-4,-7.2937645E-2,-0E0,-0E0,2.6500694E-4,-0E0,-3.829193E-4,1.3865848E-1,-0E0,-6.915368E-3,-0E0,-0E0,-2.2687316E-3,4.2701927E-3,-0E0],"categories":[],"categories_nodes":[],"categories_segments":[],"categories_sizes":[],"default_left":[0,0,0,0,0,0,0,0,0,0,0,0,0,0,0,0,0,0,0,0,0,0,0,0,0,0,0,0,0,0,0,0,0,0,0,0,0,0,0,0,0,0,0,0,0,0,0,0,0,0,0,0,0,0,0,0,0,0,0,0,0],"id":20,"left_children":[1,3,5,7,-1,9,11,13,-1,15,17,-1,19,21,-1,23,25,27,-1,29,31,-1,33,35,-1,37,39,41,-1,-1,-1,-1,43,45,-1,-1,-1,-1,47,49,51,-1,-1,-1,53,55,-1,57,-1,-1,-1,-1,-1,59,-1,-1,-1,-1,-1,-1,-1],"loss_changes":[2.708922E0,1.6033888E-2,5.009469E-1,1.3400078E-2,0E0,4.5123704E-2,7.084453E-2,6.584406E-3,0E0,3.0794676E-2,3.2640044E-2,0E0,5.2336574E-2,5.9378147E-3,0E0,1.4546553E-2,2.582524E-2,1.776193E-2,0E0,9.601495E-5,3.2956004E-2,0E0,6.237507E-3,4.0501226E-3,0E0,2.6486054E-2,3.7516318E-5,2.6595145E-3,0E0,0E0,0E0,0E0,2.4958968E-2,6.018877E-3,0E0,0E0,0E0,0E0,8.779965E-3,5.9035193E-4,9.7390136E-4,0E0,0E0,0E0,1.8421054E-2,7.744789E-3,0E0,1.4656112E-3,0E0,0E0,0E0,0E0,0E0,1.1628747E-2,0E0,0E0,0E0,0E0,0E0,0E0,0E0],"parents":[2147483647,0,0,1,1,2,2,3,3,5,5,6,6,7,7,9,9,10,10,12,12,13,13,15,15,16,16,17,17,19,19,20,20,22,22,23,23,25,25,26,26,27,27,32,32,33,33,38,38,39,39,40,40,44,44,45,45,47,47,53,53],"right_children":[2,4,6,8,-1,10,12,14,-1,16,18,-1,20,22,-1,24,26,28,-1,30,32,-1,34,36,-1,38,40,42,-1,-1,-1,-1,44,46,-1,-1,-1,-1,48,50,52,-1,-1,-1,54,56,-1,58,-1,-1,-1,-1,-1,60,-1,-1,-1,-1,-1,-1,-1],"split_conditions":[-5.416206E-1,1.634309E0,2.0536236E-1,1.6413263E0,-0E0,1.1724982E0,-1.9565111E0,-4.5412862E-1,-0E0,-3.1330824E-1,2.2284229E0,-0E0,-1.5444473E0,-2.1973011E0,-0E0,-7.1939427E-1,7.3713654E-1,9.147461E-1,-0E0,-5.0298697E-1,-1.5648891E0,-0E0,1.634309E0,1.6683997E0,-0E0,-5.516631E-1,6.3177323E-1,9.7292984E-1,-0E0,1.3146363E-4,-0E0,-0E0,-9.415602E-1,-1.5245327E-1,-0E0,1.3497404E-3,-0E0,-0E0,1.554745E0,-1.2611561E0,-3.5231614E-1,2.7232808E-3,-0E0,-0E0,1.7833976E0,1.4487801E0,-1.2975722E-4,-1.031778E0,-0E0,-0E0,2.6500694E-4,-0E0,-3.829193E-4,1.2126831E0,-0E0,-6.915368E-3,-0E0,-0E0,-2.2687316E-3,4.2701927E-3,-0E0],"split_indices":[107,169,196,115,0,102,116,34,0,85,212,0,134,78,0,102,3,56,0,56,74,0,151,3,0,90,56,11,0,0,0,0,90,212,0,0,0,0,78,56,65,0,0,0,59,119,0,5,0,0,0,0,0,168,0,0,0,0,0,0,0],"split_type":[0,0,0,0,0,0,0,0,0,0,0,0,0,0,0,0,0,0,0,0,0,0,0,0,0,0,0,0,0,0,0,0,0,0,0,0,0,0,0,0,0,0,0,0,0,0,0,0,0,0,0,0,0,0,0,0,0,0,0,0,0],"sum_hessian":[2.12E2,5.1E1,1.61E2,5E1,1E0,7.5E1,8.6E1,4.9E1,1E0,5.5E1,2E1,4E0,8.2E1,4.7E1,2E0,1.5E1,4E1,1.4E1,6E0,6E0,7.6E1,2E0,4.5E1,1.1E1,4E0,2.3E1,1.7E1,1.1E1,3E0,4E0,2E0,2E0,7.4E1,4.4E1,1E0,1E1,1E0,4E0,1.9E1,9E0,8E0,1E1,1E0,2E0,7.2E1,4.1E1,3E0,1.7E1,2E0,2E0,7E0,3E0,5E0,6.9E1,3E0,3.9E1,2E0,1E0,1.6E1,6.6E1,3E0],"tree_param":{"num_deleted":"0","num_feature":"216","num_nodes":"61","size_leaf_vector":"1"}},{"base_weights":[3.2995725E-3,7.606281E-2,-1.7725663E-1,1.3785775E-2,1.2236158E-1,-2.5892207E-1,-3.5869896E-3,-6.221056E-3,4.36783E-2,-0E0,1.2539646E-1,-8.002275E-3,-0E0,4.603593E-3,-3.560031E-2,-0E0,8.424555E-2,-0E0,1.2857041E-1,-0E0,1.947486E-2,-5.5059303E-2,-0E0,-0E0,5.4214126E-3,9.808256E-2,-0E0,-0E0,1.3198163E-1,7.3223264E-4,-0E0,-1.7878407E-3,-0E0,4.5289553E-4,-0E0,-0E0,3.2257338E-3,1.3658355E-1,-0E0,1.4058374E-1,-0E0,4.3339767E-3,-0E0],"categories":[],"categories_nodes":[],"categories_segments":[],"categories_sizes":[],"default_left":[0,0,0,0,0,0,0,0,0,0,0,0,0,0,0,0,0,0,0,0,0,0,0,0,0,0,0,0,0,0,0,0,0,0,0,0,0,0,0,0,0,0,0],"id":21,"left_children":[1,3,5,7,9,11,-1,13,15,-1,17,-1,-1,19,21,23,25,-1,27,-1,29,31,-1,-1,33,35,-1,-1,37,-1,-1,-1,-1,-1,-1,-1,-1,39,-1,41,-1,-1,-1],"loss_changes":[2.6763847E0,3.8420486E-1,1.287508E-1,5.157856E-2,3.0208707E-2,1.5177727E-2,0E0,2.0593606E-2,5.0599806E-2,0E0,3.1425357E-2,0E0,0E0,5.6656543E-3,2.089588E-2,4.11484E-4,2.1125622E-2,0E0,1.7069101E-2,0E0,2.8677555E-3,1.7696247E-4,0E0,0E0,2.0954695E-3,4.055485E-3,0E0,0E0,1.8073201E-2,0E0,0E0,0E0,0E0,0E0,0E0,0E0,0E0,1.9427776E-2,0E0,1.2638211E-2,0E0,0E0,0E0],"parents":[2147483647,0,0,1,1,2,2,3,3,4,4,5,5,7,7,8,8,10,10,13,13,14,14,15,15,16,16,18,18,20,20,21,21,24,24,25,25,28,28,37,37,39,39],"right_children":[2,4,6,8,10,12,-1,14,16,-1,18,-1,-1,20,22,24,26,-1,28,-1,30,32,-1,-1,34,36,-1,-1,38,-1,-1,-1,-1,-1,-1,-1,-1,40,-1,42,-1,-1,-1],"split_conditions":[9.227328E-1,3.653836E-1,-1.5068078E0,2.5849095E-1,-1.1913469E0,9.619934E-1,-3.5869896E-3,-4.354753E-1,-1.9434668E-1,-0E0,-2.0379882E0,-8.002275E-3,-0E0,-2.0216558E0,1.1319864E0,-2.2546574E-1,5.0113887E-1,-0E0,-1.00555815E-1,-0E0,7.7452844E-1,1.8616278E0,-0E0,-0E0,-7.5497225E-2,-4.948232E-1,-0E0,-0E0,1.3594457E0,7.3223264E-4,-0E0,-1.7878407E-3,-0E0,4.5289553E-4,-0E0,-0E0,3.2257338E-3,1.7833976E0,-0E0,7.010698E-1,-0E0,4.3339767E-3,-0E0],"split_indices":[1,215,161,168,47,7,0,169,178,0,116,0,0,169,57,53,144,0,198,0,1,92,0,0,142,44,0,0,44,0,0,0,0,0,0,0,0,59,0,67,0,0,0],"split_type":[0,0,0,0,0,0,0,0,0,0,0,0,0,0,0,0,0,0,0,0,0,0,0,0,0,0,0,0,0,0,0,0,0,0,0,0,0,0,0,0,0,0,0],"sum_hessian":[2.04E2,1.47E2,5.7E1,6.6E1,8.1E1,2E1,3.7E1,3.4E1,3.2E1,2E0,7.9E1,1.9E1,1E0,1.8E1,1.6E1,1.7E1,1.5E1,2E0,7.7E1,3E0,1.5E1,1.3E1,3E0,4E0,1.3E1,1.3E1,2E0,3E0,7.4E1,1.4E1,1E0,1.1E1,2E0,1E1,3E0,2E0,1.1E1,7E1,4E0,6.7E1,3E0,6.4E1,3E0],"tree_param":{"num_deleted":"0","num_feature":"216","num_nodes":"43","size_leaf_vector":"1"}},{"base_weights":[-2.1670747E-3,-1.9078085E-1,5.4326676E-2,-0E0,-1.9788516E-1,-0E0,9.275027E-2,-0E0,-2.0287736E-1,-1.096185E-2,5.1830065E-2,1.0128084E-1,-3.0784195E-3,-0E0,-2.080771E-1,2.6740009E-2,-2.7080556E-2,3.0777738E-3,-0E0,1.0565457E-1,-0E0,-2.1583515E-1,-4.612997E-5,1.2695286E-3,-0E0,-0E0,-4.6647616E-2,1.1083787E-1,-0E0,-0E0,-2.1888909E-1,-0E0,-6.604968E-2,-0E0,1.142141E-1,-0E0,-2.220916E-1,-0E0,-7.917795E-2,-0E0,1.1655329E-1,-6.9474056E-3,-1.8513724E-4,-2.586943E-3,-0E0,3.6318547E-3,-0E0],"categories":[],"categories_nodes":[],"categories_segments":[],"categories_sizes":[],"default_left":[0,0,0,0,0,0,0,0,0,0,0,0,0,0,0,0,0,0,0,0,0,0,0,0,0,0,0,0,0,0,0,0,0,0,0,0,0,0,0,0,0,0,0,0,0,0,0],"id":22,"left_children":[1,3,5,-1,7,9,11,-1,13,15,17,19,-1,-1,21,23,25,-1,-1,27,-1,29,-1,-1,-1,-1,31,33,-1,-1,35,-1,37,-1,39,-1,41,-1,43,-1,45,-1,-1,-1,-1,-1,-1],"loss_changes":[2.3422332E0,2.3345709E-2,3.3026925E-1,0E0,1.3714671E-2,4.714458E-2,1.6831684E-1,0E0,1.1703134E-2,3.5465498E-2,4.3906365E-2,6.1846554E-2,0E0,0E0,4.959464E-3,7.5366916E-3,2.2841603E-2,0E0,0E0,4.0690064E-2,0E0,6.520033E-3,0E0,0E0,0E0,0E0,3.0675203E-2,2.6210546E-2,0E0,0E0,7.164955E-3,0E0,1.9324318E-2,0E0,1.763475E-2,0E0,7.1480274E-3,0E0,4.962392E-3,0E0,1.3495207E-2,0E0,0E0,0E0,0E0,0E0,0E0],"parents":[2147483647,0,0,1,1,2,2,4,4,5,5,6,6,8,8,9,9,10,10,11,11,14,14,15,15,16,16,19,19,21,21,26,26,27,27,30,30,32,32,34,34,36,36,38,38,40,40],"right_children":[2,4,6,-1,8,10,12,-1,14,16,18,20,-1,-1,22,24,26,-1,-1,28,-1,30,-1,-1,-1,-1,32,34,-1,-1,36,-1,38,-1,40,-1,42,-1,44,-1,46,-1,-1,-1,-1,-1,-1],"split_conditions":[-5.302225E-1,-1.1330108E-1,1.5667148E-1,-0E0,-1.7915769E0,1.1149051E0,1.6770328E0,-0E0,-1.3485415E0,-8.41404E-1,3.7057295E-1,1.7907745E0,-3.0784195E-3,-0E0,-1.5245327E-1,9.647513E-1,-2.516825E-1,3.0777738E-3,-0E0,1.697084E0,-0E0,-1.1330108E-1,-4.612997E-5,1.2695286E-3,-0E0,-0E0,-1.9156812E0,-1.9565111E0,-0E0,-0E0,-2.2595775E0,-0E0,-4.727024E-1,-0E0,-9.415602E-1,-0E0,1.6278815E0,-0E0,1.0210799E0,-0E0,1.1983372E0,-6.9474056E-3,-1.8513724E-4,-2.586943E-3,-0E0,3.6318547E-3,-0E0],"split_indices":[125,139,196,0,60,48,54,0,149,113,98,176,0,0,212,6,31,0,0,59,0,157,0,0,0,0,8,116,0,0,24,0,126,0,90,0,23,0,3,0,204,0,0,0,0,0,0],"split_type":[0,0,0,0,0,0,0,0,0,0,0,0,0,0,0,0,0,0,0,0,0,0,0,0,0,0,0,0,0,0,0,0,0,0,0,0,0,0,0,0,0,0,0,0,0,0,0],"sum_hessian":[2.14E2,5E1,1.64E2,3E0,4.7E1,7E1,9.4E1,2E0,4.5E1,5.6E1,1.4E1,9.2E1,2E0,2E0,4.3E1,1.1E1,4.5E1,7E0,7E0,9E1,2E0,4E1,3E0,8E0,3E0,2E1,2.5E1,8.5E1,5E0,1E0,3.9E1,6E0,1.9E1,3E0,8.2E1,1E0,3.8E1,3E0,1.6E1,2E0,8E1,3.5E1,3E0,1.4E1,2E0,7.5E1,5E0],"tree_param":{"num_deleted":"0","num_feature":"216","num_nodes":"47","size_leaf_vector":"1"}},{"base_weights":[1.3172331E-3,6.628305E-2,-1.7238365E-1,7.3597003E-3,1.1015977E-1,-1.8904449E-1,-8.75628E-4,7.4596606E-2,-0E0,-5.846085E-2,1.183445E-1,-1.224246E-4,-1.9872835E-1,2.410113E-3,-0E0,-2.3074765E-2,2.2913158E-2,-2.817851E-3,-0E0,6.426146E-2,1.5432097E-1,-0E0,-2.0385602E-1,-0E0,-4.7235526E-2,-0E0,4.1424718E-2,-0E0,7.334389E-2,1.7431258E-1,4.577454E-2,-0E0,-2.0660703E-1,-0E0,1.0502261E-2,-0E0,-6.825134E-2,5.060701E-2,-0E0,-0E0,7.728836E-2,1.7743786E-1,-0E0,-0E0,1.4527014E-3,-2.1209879E-1,-0E0,-0E0,3.4340558E-4,-8.122431E-2,-0E0,-0E0,1.6139845E-3,-0E0,7.913931E-2,1.8062852E-1,-0E0,-2.1800527E-1,-0E0,-2.687792E-3,-0E0,2.427217E-3,-0E0,-0E0,5.516865E-3,-6.9096684E-3,-9.194548E-4],"categories":[],"categories_nodes":[],"categories_segments":[],"categories_sizes":[],"default_left":[0,0,0,0,0,0,0,0,0,0,0,0,0,0,0,0,0,0,0,0,0,0,0,0,0,0,0,0,0,0,0,0,0,0,0,0,0,0,0,0,0,0,0,0,0,0,0,0,0,0,0,0,0,0,0,0,0,0,0,0,0,0,0,0,0,0,0],"id":23,"left_children":[1,3,5,7,9,11,-1,13,15,17,19,-1,21,-1,-1,23,25,-1,-1,27,29,-1,31,33,35,-1,37,-1,39,41,43,-1,45,-1,47,-1,49,51,-1,-1,53,55,-1,-1,-1,57,-1,-1,-1,59,-1,-1,-1,-1,61,63,-1,65,-1,-1,-1,-1,-1,-1,-1,-1,-1],"loss_changes":[2.38322E0,3.6983544E-1,6.500125E-2,4.06715E-2,1.4495361E-1,2.6113272E-2,0E0,6.6112354E-4,3.437852E-2,7.392063E-3,8.9894295E-2,0E0,9.77993E-3,0E0,0E0,2.6520781E-2,1.804475E-2,0E0,0E0,2.7224496E-2,2.7985692E-2,0E0,5.868435E-3,1.1029749E-3,2.9908016E-2,0E0,1.1779103E-2,0E0,1.4822274E-2,9.19044E-3,3.99841E-4,0E0,6.604433E-3,0E0,7.6299184E-5,0E0,1.1234127E-2,2.1090358E-4,0E0,0E0,3.5813302E-3,8.502126E-3,0E0,0E0,0E0,6.563306E-3,0E0,0E0,0E0,2.5300533E-3,0E0,0E0,0E0,0E0,2.7914196E-3,7.863641E-3,0E0,2.3413897E-3,0E0,0E0,0E0,0E0,0E0,0E0,0E0,0E0,0E0],"parents":[2147483647,0,0,1,1,2,2,3,3,4,4,5,5,7,7,8,8,9,9,10,10,12,12,15,15,16,16,19,19,20,20,22,22,23,23,24,24,26,26,28,28,29,29,30,30,32,32,34,34,36,36,37,37,40,40,41,41,45,45,49,49,54,54,55,55,57,57],"right_children":[2,4,6,8,10,12,-1,14,16,18,20,-1,22,-1,-1,24,26,-1,-1,28,30,-1,32,34,36,-1,38,-1,40,42,44,-1,46,-1,48,-1,50,52,-1,-1,54,56,-1,-1,-1,58,-1,-1,-1,60,-1,-1,-1,-1,62,64,-1,66,-1,-1,-1,-1,-1,-1,-1,-1,-1],"split_conditions":[9.0511745E-1,4.0452552E-1,1.1683776E0,-9.8364854E-1,-1.7328603E0,-1.5033726E0,-8.75628E-4,7.804436E-1,-1.2107221E-1,-7.871159E-1,7.016857E-1,-1.224246E-4,-1.3485415E0,2.410113E-3,-0E0,-1.2988924E-2,-3.5231614E-1,-2.817851E-3,-0E0,-1.2676398E-1,1.5756911E0,-0E0,-2.271247E-1,-6.55998E-1,-6.823033E-1,-0E0,2.7171128E0,-0E0,-1.0555606E0,-6.025723E-1,-1.7624271E0,-0E0,1.2911159E0,-0E0,-1.3806967E0,-0E0,2.0987494E0,-1.6107314E0,-0E0,-0E0,-1.1941273E0,1.9149241E0,-0E0,-0E0,1.4527014E-3,1.4445403E0,-0E0,-0E0,3.4340558E-4,2.6796573E-1,-0E0,-0E0,1.6139845E-3,-0E0,1.2171335E0,-1.1913469E0,-0E0,9.084303E-1,-0E0,-2.687792E-3,-0E0,2.427217E-3,-0E0,-0E0,5.516865E-3,-6.9096684E-3,-9.194548E-4],"split_indices":[1,180,115,103,103,60,0,8,211,1,66,0,149,0,0,101,209,0,0,70,122,0,85,32,194,0,210,0,95,19,56,0,43,0,5,0,140,164,0,0,11,11,0,0,0,119,0,0,0,103,0,0,0,0,42,65,0,95,0,0,0,0,0,0,0,0,0],"split_type":[0,0,0,0,0,0,0,0,0,0,0,0,0,0,0,0,0,0,0,0,0,0,0,0,0,0,0,0,0,0,0,0,0,0,0,0,0,0,0,0,0,0,0,0,0,0,0,0,0,0,0,0,0,0,0,0,0,0,0,0,0,0,0,0,0,0,0],"sum_hessian":[2.12E2,1.56E2,5.6E1,7E1,8.6E1,4.8E1,8E0,7E0,6.3E1,2E0,8.4E1,4E0,4.4E1,6E0,1E0,3.3E1,3E1,1E0,1E0,3.8E1,4.6E1,2E0,4.2E1,1.4E1,1.9E1,1.1E1,1.9E1,4E0,3.4E1,3.6E1,1E1,1E0,4.1E1,5E0,9E0,4E0,1.5E1,1.7E1,2E0,1E0,3.3E1,3.5E1,1E0,1E0,9E0,3.9E1,2E0,1E0,8E0,1.2E1,3E0,2E0,1.5E1,1E0,3.2E1,3.4E1,1E0,3.7E1,2E0,1E1,2E0,3.1E1,1E0,1E0,3.3E1,3.3E1,4E0],"tree_param":{"num_deleted":"0","num_feature":"216","num_nodes":"67","size_leaf_vector":"1"}},{"base_weights":[-3.1930201E-3,-1.747561E-1,5.462581E-2,-1.113575E-1,-2.2178377E-1,5.602037E-4,1.03767425E-1,-0E0,-3.4074807E-3,-2.35725E-1,-2.1595806E-5,8.761862E-2,-5.9814984E-3,1.1306794E-1,-2.45807E-3,-7.2295973E-3,-0E0,2.8590737E-3,-0E0,3.430141E-2,-1.7499164E-2,-0E0,1.17644414E-1,1.5927777E-3,-0E0,-0E0,-3.9623205E-2,-0E0,1.2099974E-1,1.6342424E-2,-4.7308477E-3,-6.487074E-2,-0E0,1.24258615E-1,-0E0,-0E0,6.269662E-4,-1.6868267E-2,-0E0,-0E0,-7.319114E-2,-0E0,8.523554E-5,9.364955E-2,1.7871417E-1,-6.938168E-4,-0E0,-2.344305E-3,-0E0,-0E0,2.8505549E-3,-0E0,5.696204E-3],"categories":[],"categories_nodes":[],"categories_segments":[],"categories_sizes":[],"default_left":[0,0,0,0,0,0,0,0,0,0,0,0,0,0,0,0,0,0,0,0,0,0,0,0,0,0,0,0,0,0,0,0,0,0,0,0,0,0,0,0,0,0,0,0,0,0,0,0,0,0,0,0,0],"id":24,"left_children":[1,3,5,7,9,11,13,-1,-1,15,-1,17,19,21,-1,-1,-1,-1,-1,23,25,-1,27,-1,-1,29,31,-1,33,35,37,39,41,43,-1,-1,-1,45,-1,-1,47,-1,-1,49,51,-1,-1,-1,-1,-1,-1,-1,-1],"loss_changes":[2.227892E0,4.530537E-2,4.0437046E-1,1.6144514E-3,1.8271804E-2,7.1715064E-2,1.6195607E-1,0E0,0E0,7.140279E-3,0E0,3.567256E-3,2.9892983E-2,5.7843566E-2,0E0,0E0,0E0,0E0,0E0,1.2426957E-2,2.907182E-2,0E0,3.39756E-2,0E0,0E0,3.9643534E-3,3.54943E-2,0E0,1.5223026E-2,1.7691823E-3,4.629311E-3,1.2260735E-2,4.843398E-5,2.489996E-2,0E0,0E0,0E0,3.4362073E-3,0E0,0E0,7.383935E-3,0E0,0E0,4.6601593E-3,1.8386245E-2,0E0,0E0,0E0,0E0,0E0,0E0,0E0,0E0],"parents":[2147483647,0,0,1,1,2,2,3,3,4,4,5,5,6,6,9,9,11,11,12,12,13,13,19,19,20,20,22,22,25,25,26,26,28,28,29,29,30,30,31,31,32,32,33,33,37,37,40,40,43,43,44,44],"right_children":[2,4,6,8,10,12,14,-1,-1,16,-1,18,20,22,-1,-1,-1,-1,-1,24,26,-1,28,-1,-1,30,32,-1,34,36,38,40,42,44,-1,-1,-1,46,-1,-1,48,-1,-1,50,52,-1,-1,-1,-1,-1,-1,-1,-1],"split_conditions":[-5.302225E-1,1.0933796E0,2.6320365E-1,8.489463E-1,-2.4690238E-1,-9.931564E-1,1.2171335E0,-0E0,-3.4074807E-3,-1.7624171E-1,-2.1595806E-5,2.1952422E0,-1.4683416E0,-2.2759128E0,-2.45807E-3,-7.2295973E-3,-0E0,2.8590737E-3,-0E0,1.3061513E0,-2.180224E-1,-0E0,-2.098972E-1,1.5927777E-3,-0E0,-3.977165E-1,7.8839785E-1,-0E0,1.1977947E0,-1.3107246E0,1.4991558E0,-1.4668522E0,-4.075629E-1,1.0776314E0,-0E0,-0E0,6.269662E-4,-9.653992E-2,-0E0,-0E0,1.6466516E0,-0E0,8.523554E-5,-1.8494831E0,-1.3560334E0,-6.938168E-4,-0E0,-2.344305E-3,-0E0,-0E0,2.8505549E-3,-0E0,5.696204E-3],"split_indices":[125,139,214,1,68,103,204,0,0,14,0,3,78,116,0,0,0,0,0,8,7,0,161,0,0,61,20,0,204,23,61,1,209,214,0,0,0,26,0,0,169,0,0,38,211,0,0,0,0,0,0,0,0],"split_type":[0,0,0,0,0,0,0,0,0,0,0,0,0,0,0,0,0,0,0,0,0,0,0,0,0,0,0,0,0,0,0,0,0,0,0,0,0,0,0,0,0,0,0,0,0,0,0,0,0,0,0,0,0],"sum_hessian":[2.19E2,5.6E1,1.63E2,2.8E1,2.8E1,8.1E1,8.2E1,1E0,2.7E1,2.5E1,3E0,8E0,7.3E1,8E1,2E0,2.4E1,1E0,7E0,1E0,1E1,6.3E1,2E0,7.8E1,8E0,2E0,3.3E1,3E1,2E0,7.6E1,1.2E1,2.1E1,1.9E1,1.1E1,7.3E1,3E0,1E0,1.1E1,1.7E1,4E0,2E0,1.7E1,6E0,5E0,5.2E1,2.1E1,1.5E1,2E0,1.6E1,1E0,1E0,5.1E1,2E0,1.9E1],"tree_param":{"num_deleted":"0","num_feature":"216","num_nodes":"53","size_leaf_vector":"1"}},{"base_weights":[-5.826038E-4,6.0807772E-2,-1.6416469E-1,8.789322E-2,-0E0,-1.7546566E-1,-0E0,1.0551528E-1,-0E0,2.5032938E-2,-1.668694E-2,-1.7964318E-1,-0E0,-2.7387114E-3,1.12123094E-1,-2.3951495E-2,7.4776784E-3,3.3882357E-2,-0E0,-4.6607215E-2,-0E0,-2.622539E-4,-1.8714046E-1,-0E0,1.150591E-1,-9.845906E-4,-0E0,-0E0,4.0334312E-4,-0E0,3.9832965E-2,-0E0,-1.5876298E-3,-1.9139317E-1,-0E0,7.65274E-2,1.4646071E-1,-0E0,1.2458726E-3,-0E0,-1.9365883E-1,7.796311E-2,-0E0,-0E0,1.5813494E-1,-1.9594397E-1,-0E0,2.3813825E-3,-0E0,4.9362797E-3,-0E0,-6.085139E-3,-0E0],"categories":[],"categories_nodes":[],"categories_segments":[],"categories_sizes":[],"default_left":[0,0,0,0,0,0,0,0,0,0,0,0,0,0,0,0,0,0,0,0,0,0,0,0,0,0,0,0,0,0,0,0,0,0,0,0,0,0,0,0,0,0,0,0,0,0,0,0,0,0,0,0,0],"id":25,"left_children":[1,3,5,7,9,11,-1,13,15,17,19,21,-1,-1,23,25,27,29,-1,31,-1,-1,33,-1,35,-1,-1,-1,-1,-1,37,-1,-1,39,-1,41,43,-1,-1,-1,45,47,-1,-1,49,51,-1,-1,-1,-1,-1,-1,-1],"loss_changes":[2.1900558E0,2.4574745E-1,1.0713625E-1,1.831395E-1,2.2209615E-2,1.8531442E-2,0E0,1.3352656E-1,6.1840666E-3,8.5473815E-3,1.8270079E-2,8.789301E-3,0E0,0E0,1.9648075E-2,2.8803144E-3,6.3724583E-4,5.5996887E-3,0E0,4.7401562E-3,0E0,0E0,7.2267056E-3,0E0,2.5951624E-2,0E0,0E0,0E0,0E0,0E0,7.593278E-4,0E0,0E0,4.3714046E-3,0E0,3.9028823E-3,4.932195E-2,0E0,0E0,0E0,3.4497976E-3,3.5041273E-3,0E0,0E0,2.4421215E-2,3.0332804E-3,0E0,0E0,0E0,0E0,0E0,0E0,0E0],"parents":[2147483647,0,0,1,1,2,2,3,3,4,4,5,5,7,7,8,8,9,9,10,10,11,11,14,14,15,15,16,16,17,17,19,19,22,22,24,24,30,30,33,33,35,35,36,36,40,40,41,41,44,44,45,45],"right_children":[2,4,6,8,10,12,-1,14,16,18,20,22,-1,-1,24,26,28,30,-1,32,-1,-1,34,-1,36,-1,-1,-1,-1,-1,38,-1,-1,40,-1,42,44,-1,-1,-1,46,48,-1,-1,50,52,-1,-1,-1,-1,-1,-1,-1],"split_conditions":[9.003061E-1,-1.939034E-1,-4.0316203E-1,1.7907745E0,7.325821E-2,1.4941453E0,-0E0,-2.006285E0,2.2284229E0,1.3628299E0,-7.91438E-2,-1.5033726E0,-0E0,-2.7387114E-3,-2.098972E-1,3.8070506E-1,-2.1667899E-1,-1.195379E0,-0E0,-1.8646983E0,-0E0,-2.622539E-4,1.4941453E0,-0E0,8.8221276E-1,-9.845906E-4,-0E0,-0E0,4.0334312E-4,-0E0,-1.7744532E0,-0E0,-1.5876298E-3,-2.271247E-1,-0E0,2.5085928E0,-1.3750235E0,-0E0,1.2458726E-3,-0E0,1.6466516E0,1.1781334E0,-0E0,-0E0,1.1804665E0,-1.5245327E-1,-0E0,2.3813825E-3,-0E0,4.9362797E-3,-0E0,-6.085139E-3,-0E0],"split_indices":[4,4,108,212,180,169,0,115,194,97,17,60,0,0,161,114,126,191,0,20,0,0,61,0,30,0,0,0,0,0,42,0,0,85,0,39,92,0,0,0,43,173,0,0,193,212,0,0,0,0,0,0,0],"split_type":[0,0,0,0,0,0,0,0,0,0,0,0,0,0,0,0,0,0,0,0,0,0,0,0,0,0,0,0,0,0,0,0,0,0,0,0,0,0,0,0,0,0,0,0,0,0,0,0,0,0,0,0,0],"sum_hessian":[2.13E2,1.54E2,5.9E1,1.05E2,4.9E1,5.5E1,4E0,8.9E1,1.6E1,2.2E1,2.7E1,5.3E1,2E0,1E0,8.8E1,9E0,7E0,1.9E1,3E0,1.1E1,1.6E1,4E0,4.9E1,3E0,8.5E1,7E0,2E0,2E0,5E0,2E0,1.7E1,1E0,1E1,4.7E1,2E0,4.4E1,4.1E1,1E0,1.6E1,1E0,4.6E1,4.3E1,1E0,4E0,3.7E1,4.5E1,1E0,4.2E1,1E0,3.5E1,2E0,4.2E1,3E0],"tree_param":{"num_deleted":"0","num_feature":"216","num_nodes":"53","size_leaf_vector":"1"}},{"base_weights":[-3.6306095E-3,-1.3815089E-1,5.450176E-2,-1.518756E-1,-0E0,2.7903204E-3,9.610539E-2,-0E0,-1.5551972E-1,-2.08367E-2,2.505554E-2,-3.5778057E-2,1.10122226E-1,-0E0,-1.6044675E-1,-0E0,-3.8623914E-2,4.1609075E-2,-6.9306493E-3,-0E0,-2.9918724E-3,-0E0,1.15068756E-1,-1.6263945E-1,-0E0,-5.307047E-2,-0E0,5.6592304E-2,-0E0,-0E0,-2.6026411E-2,-0E0,1.20713115E-1,-1.6467586E-1,-0E0,-0E0,-1.7399336E-3,6.2129863E-2,-0E0,-0E0,-8.480355E-4,1.2343733E-1,-0E0,-1.664533E-1,-0E0,-0E0,6.4621516E-2,1.2605405E-1,-0E0,-0E0,-5.0487076E-3,-0E0,2.0029969E-3,8.5595244E-4,4.111123E-3],"categories":[],"categories_nodes":[],"categories_segments":[],"categories_sizes":[],"default_left":[0,0,0,0,0,0,0,0,0,0,0,0,0,0,0,0,0,0,0,0,0,0,0,0,0,0,0,0,0,0,0,0,0,0,0,0,0,0,0,0,0,0,0,0,0,0,0,0,0,0,0,0,0,0,0],"id":26,"left_children":[1,3,5,7,-1,9,11,-1,13,15,17,19,21,-1,23,-1,25,27,29,-1,-1,-1,31,33,-1,35,-1,37,-1,-1,39,-1,41,43,-1,-1,-1,45,-1,-1,-1,47,-1,49,-1,-1,51,53,-1,-1,-1,-1,-1,-1,-1],"loss_changes":[1.6435406E0,1.6248894E-1,2.7771097E-1,1.8838525E-2,0E0,3.7559863E-2,1.6673595E-1,0E0,1.306355E-2,1.6621789E-2,3.2930255E-2,2.2157252E-2,3.936553E-2,0E0,1.2512207E-2,0E0,1.3902793E-2,3.081058E-2,4.309313E-3,0E0,0E0,0E0,1.7638624E-2,8.87537E-3,0E0,1.481548E-3,0E0,1.0687828E-2,0E0,0E0,5.281018E-5,0E0,1.1428952E-2,3.4868717E-3,0E0,0E0,0E0,4.0353984E-3,0E0,0E0,0E0,8.044362E-3,0E0,3.653884E-3,0E0,0E0,2.5880337E-3,9.61566E-3,0E0,0E0,0E0,0E0,0E0,0E0,0E0],"parents":[2147483647,0,0,1,1,2,2,3,3,5,5,6,6,8,8,9,9,10,10,11,11,12,12,14,14,16,16,17,17,18,18,22,22,23,23,25,25,27,27,30,30,32,32,33,33,37,37,41,41,43,43,46,46,47,47],"right_children":[2,4,6,8,-1,10,12,-1,14,16,18,20,22,-1,24,-1,26,28,30,-1,-1,-1,32,34,-1,36,-1,38,-1,-1,40,-1,42,44,-1,-1,-1,46,-1,-1,-1,48,-1,50,-1,-1,52,54,-1,-1,-1,-1,-1,-1,-1],"split_conditions":[-3.2359406E-1,-5.0159484E-2,4.0591642E-1,-2.1621227E0,-0E0,2.5849095E-1,-1.2533519E0,-0E0,-1.7297428E0,-3.4600553E-1,1.2056888E0,7.729424E-1,-6.457363E-1,-0E0,-7.1939427E-1,-0E0,1.3784468E0,3.2503426E-1,-5.07585E-1,-0E0,-2.9918724E-3,-0E0,-1.00555815E-1,1.6466516E0,-0E0,-1.8671021E0,-0E0,9.776695E-1,-0E0,-0E0,-1.4833449E0,-0E0,1.5883876E0,-7.2062865E-2,-0E0,-0E0,-1.7399336E-3,-1.195379E0,-0E0,-0E0,-8.480355E-4,2.289751E0,-0E0,-1.3485415E0,-0E0,-0E0,-6.7301327E-1,-1.1331823E0,-0E0,-0E0,-5.0487076E-3,-0E0,2.0029969E-3,8.5595244E-4,4.111123E-3],"split_indices":[71,126,180,8,0,168,131,0,24,65,2,0,144,0,12,0,192,211,64,0,0,0,198,115,0,26,0,0,0,0,1,0,164,86,0,0,0,11,0,0,0,57,0,59,0,0,36,113,0,0,0,0,0,0,0],"split_type":[0,0,0,0,0,0,0,0,0,0,0,0,0,0,0,0,0,0,0,0,0,0,0,0,0,0,0,0,0,0,0,0,0,0,0,0,0,0,0,0,0,0,0,0,0,0,0,0,0,0,0,0,0,0,0],"sum_hessian":[2.05E2,6.3E1,1.42E2,5.9E1,4E0,6.7E1,7.5E1,2E0,5.7E1,2.6E1,4.1E1,5E0,7E1,3E0,5.4E1,8E0,1.8E1,3.3E1,8E0,3E0,2E0,3E0,6.7E1,5.3E1,1E0,1.4E1,4E0,2.7E1,6E0,2E0,6E0,5E0,6.2E1,5.2E1,1E0,2E0,1.2E1,2.5E1,2E0,1E0,5E0,6E1,2E0,5.1E1,1E0,1E0,2.4E1,5.8E1,2E0,1E0,5E1,1E0,2.3E1,9E0,4.9E1],"tree_param":{"num_deleted":"0","num_feature":"216","num_nodes":"55","size_leaf_vector":"1"}},{"base_weights":[-5.370879E-3,-1.6941625E-1,5.1193554E-2,-0E0,-1.7541167E-1,-0E0,8.393645E-2,-1.7764689E-1,-0E0,-1.8797897E-2,1.7644998E-2,-2.1355785E-2,9.544082E-2,-1.7963552E-1,-0E0,-0E0,-4.8252806E-2,-0E0,4.156379E-2,-2.5424287E-3,-0E0,2.1531506E-2,1.1277271E-1,-0E0,-1.8347687E-1,3.2150644E-4,-0E0,-0E0,-1.7342815E-3,-7.81811E-3,-0E0,-0E0,6.0719185E-2,5.995713E-2,-5.7495834E-4,7.679308E-2,1.5457024E-1,-1.1699689E-3,-1.9520727E-1,-0E0,-3.7970653E-4,1.976605E-3,-0E0,2.2050908E-3,-0E0,-7.968337E-4,-0E0,-0E0,8.2138136E-2,-0E0,1.5887922E-1,-0E0,-1.9779003E-1,8.663483E-2,-0E0,-0E0,1.6314542E-1,-0E0,-6.086942E-3,2.6585683E-3,-0E0,5.02602E-3,-0E0],"categories":[],"categories_nodes":[],"categories_segments":[],"categories_sizes":[],"default_left":[0,0,0,0,0,0,0,0,0,0,0,0,0,0,0,0,0,0,0,0,0,0,0,0,0,0,0,0,0,0,0,0,0,0,0,0,0,0,0,0,0,0,0,0,0,0,0,0,0,0,0,0,0,0,0,0,0,0,0,0,0,0,0],"id":27,"left_children":[1,3,5,-1,7,9,11,13,-1,15,17,19,21,23,-1,25,27,29,31,-1,-1,33,35,-1,37,-1,-1,-1,-1,39,-1,-1,41,43,45,47,49,-1,51,-1,-1,-1,-1,-1,-1,-1,-1,-1,53,-1,55,-1,57,59,-1,-1,61,-1,-1,-1,-1,-1,-1],"loss_changes":[2.085549E0,2.7600884E-2,2.7030036E-1,0E0,1.1845589E-2,2.1851297E-2,1.4418447E-1,6.098151E-3,0E0,2.8627478E-2,2.3653865E-2,2.5080085E-2,7.513142E-2,6.598711E-3,0E0,1.0336641E-3,7.205285E-3,4.8898277E-4,2.0751316E-2,0E0,0E0,3.6537126E-2,2.5495231E-2,0E0,8.559465E-3,0E0,0E0,0E0,0E0,6.323942E-4,0E0,0E0,1.1316836E-3,7.293813E-3,4.9351472E-3,1.7137825E-2,1.2575448E-2,0E0,6.554723E-3,0E0,0E0,0E0,0E0,0E0,0E0,0E0,0E0,0E0,8.5989535E-3,0E0,1.0476828E-2,0E0,7.7209473E-3,5.360186E-3,0E0,0E0,9.663999E-3,0E0,0E0,0E0,0E0,0E0,0E0],"parents":[2147483647,0,0,1,1,2,2,4,4,5,5,6,6,7,7,9,9,10,10,11,11,12,12,13,13,15,15,16,16,17,17,18,18,21,21,22,22,24,24,29,29,32,32,33,33,34,34,35,35,36,36,38,38,48,48,50,50,52,52,53,53,56,56],"right_children":[2,4,6,-1,8,10,12,14,-1,16,18,20,22,24,-1,26,28,30,32,-1,-1,34,36,-1,38,-1,-1,-1,-1,40,-1,-1,42,44,46,48,50,-1,52,-1,-1,-1,-1,-1,-1,-1,-1,-1,54,-1,56,-1,58,60,-1,-1,62,-1,-1,-1,-1,-1,-1],"split_conditions":[-5.302225E-1,-1.1330108E-1,1.4764363E-1,-0E0,1.634309E0,-2.3867115E-1,-1.2533519E0,1.634309E0,-0E0,-4.3382552E-1,-4.0621686E-1,-9.266298E-1,4.0591642E-1,-1.3485415E0,-0E0,-4.0621686E-1,-2.3611698E-1,-9.621094E-2,-2.8350958E-1,-2.5424287E-3,-0E0,-1.2988924E-2,1.0494808E0,-0E0,1.3520673E-1,3.2150644E-4,-0E0,-0E0,-1.7342815E-3,-1.6545255E0,-0E0,-0E0,7.4535257E-1,6.165322E-1,2.5849095E-1,-1.8602625E0,-1.7624271E0,-1.1699689E-3,-1.5033726E0,-0E0,-3.7970653E-4,1.976605E-3,-0E0,2.2050908E-3,-0E0,-7.968337E-4,-0E0,-0E0,1.549971E0,-0E0,3.143038E-1,-0E0,-1.6745521E0,1.6906643E0,-0E0,-0E0,1.1486559E0,-0E0,-6.086942E-3,2.6585683E-3,-0E0,5.02602E-3,-0E0],"split_indices":[125,193,161,0,115,178,131,151,0,32,212,139,180,149,0,122,85,62,31,0,0,101,102,0,157,0,0,0,0,2,0,0,116,203,168,78,2,0,60,0,0,0,0,0,0,0,0,0,41,0,12,0,20,156,0,0,2,0,0,0,0,0,0],"split_type":[0,0,0,0,0,0,0,0,0,0,0,0,0,0,0,0,0,0,0,0,0,0,0,0,0,0,0,0,0,0,0,0,0,0,0,0,0,0,0,0,0,0,0,0,0,0,0,0,0,0,0,0,0,0,0,0,0,0,0,0,0,0,0],"sum_hessian":[2.19E2,5.7E1,1.62E2,3E0,5.4E1,6.4E1,9.8E1,5.3E1,1E0,3E1,3.4E1,7E0,9.1E1,5.2E1,1E0,1.4E1,1.6E1,1.5E1,1.9E1,3E0,4E0,2.1E1,7E1,2E0,5E1,8E0,6E0,3E0,1.3E1,7E0,8E0,5E0,1.4E1,1.2E1,9E0,4.3E1,2.7E1,6E0,4.4E1,1E0,6E0,1.2E1,2E0,9E0,3E0,6E0,3E0,3E0,4E1,1E0,2.6E1,1E0,4.3E1,3.7E1,3E0,1E0,2.5E1,2E0,4.1E1,3.6E1,1E0,2.4E1,1E0],"tree_param":{"num_deleted":"0","num_feature":"216","num_nodes":"63","size_leaf_vector":"1"}},{"base_weights":[2.6924394E-3,-1.5748681E-1,5.0703067E-2,-0E0,-1.6416773E-1,3.534354E-3,9.0416305E-2,-1.6671325E-1,-0E0,-9.711002E-4,6.4719096E-2,-5.4645702E-2,1.000484E-1,-1.6896239E-1,-0E0,2.2052439E-2,-1.9090118E-2,-0E0,3.0519553E-3,-0E0,-2.8811865E-3,1.0423294E-1,-0E0,-0E0,-1.7568314E-1,4.3939576E-2,-2.971977E-4,-3.5035744E-2,-0E0,1.08675346E-1,-0E0,-1.7826936E-1,-0E0,-0E0,5.122587E-2,-0E0,-4.7636963E-2,-0E0,1.1169523E-2,1.1348019E-1,-0E0,-1.8603191E-1,-0E0,1.6573325E-3,-0E0,-6.1412927E-2,-0E0,-0E0,4.0077785E-4,-0E0,1.18861265E-1,-0E0,-5.6712725E-3,-2.1186853E-3,-0E0,-0E0,3.665225E-3],"categories":[],"categories_nodes":[],"categories_segments":[],"categories_sizes":[],"default_left":[0,0,0,0,0,0,0,0,0,0,0,0,0,0,0,0,0,0,0,0,0,0,0,0,0,0,0,0,0,0,0,0,0,0,0,0,0,0,0,0,0,0,0,0,0,0,0,0,0,0,0,0,0,0,0,0,0],"id":28,"left_children":[1,3,5,-1,7,9,11,13,-1,15,17,19,21,23,-1,25,27,-1,-1,-1,-1,29,-1,-1,31,33,-1,35,37,39,-1,41,-1,-1,43,-1,45,-1,47,49,-1,51,-1,-1,-1,53,-1,-1,-1,-1,55,-1,-1,-1,-1,-1,-1],"loss_changes":[1.583224E0,2.0147324E-2,2.768305E-1,0E0,9.266496E-3,4.096479E-2,1.3785434E-1,3.915906E-3,0E0,2.8733764E-2,2.0210594E-2,1.5726175E-2,4.8366487E-2,4.689932E-3,0E0,2.7432986E-2,2.4606783E-2,0E0,0E0,0E0,0E0,2.842462E-2,0E0,0E0,3.920436E-3,5.995799E-3,0E0,2.634329E-2,1.2475824E-3,1.6735315E-2,0E0,3.636837E-3,0E0,0E0,1.1696592E-3,0E0,1.8667184E-2,0E0,3.586465E-4,1.812762E-2,0E0,3.783822E-3,0E0,0E0,0E0,1.3006136E-2,0E0,0E0,0E0,0E0,2.2849739E-2,0E0,0E0,0E0,0E0,0E0,0E0],"parents":[2147483647,0,0,1,1,2,2,4,4,5,5,6,6,7,7,9,9,10,10,11,11,12,12,13,13,15,15,16,16,21,21,24,24,25,25,27,27,28,28,29,29,31,31,34,34,36,36,38,38,39,39,41,41,45,45,50,50],"right_children":[2,4,6,-1,8,10,12,14,-1,16,18,20,22,24,-1,26,28,-1,-1,-1,-1,30,-1,-1,32,34,-1,36,38,40,-1,42,-1,-1,44,-1,46,-1,48,50,-1,52,-1,-1,-1,54,-1,-1,-1,-1,56,-1,-1,-1,-1,-1,-1],"split_conditions":[-5.302225E-1,-1.1330108E-1,2.6320365E-1,-0E0,1.634309E0,1.4952943E0,-1.2533519E0,1.634309E0,-0E0,-3.0772674E-1,-1.4388148E0,5.721538E-1,1.7907745E0,-1.7915769E0,-0E0,9.321762E-1,6.843145E-1,-0E0,3.0519553E-3,-0E0,-2.8811865E-3,1.7833976E0,-0E0,-0E0,1.6466516E0,-1.5444473E0,-2.971977E-4,-9.467496E-1,-6.3098824E-1,1.1977947E0,-0E0,-1.7624171E-1,-0E0,-0E0,8.5057133E-1,-0E0,-1.3078125E-1,-0E0,-1.4723498E0,-1.3532528E0,-0E0,-1.7775904E0,-0E0,1.6573325E-3,-0E0,1.1713432E0,-0E0,-0E0,4.0077785E-4,-0E0,-1.1913469E0,-0E0,-5.6712725E-3,-2.1186853E-3,-0E0,-0E0,3.665225E-3],"split_indices":[125,193,214,0,115,138,131,151,0,85,1,0,212,60,0,138,29,0,0,0,0,59,0,0,43,152,0,11,83,204,0,14,0,0,144,0,179,0,1,50,0,20,0,0,0,150,0,0,0,0,173,0,0,0,0,0,0],"split_type":[0,0,0,0,0,0,0,0,0,0,0,0,0,0,0,0,0,0,0,0,0,0,0,0,0,0,0,0,0,0,0,0,0,0,0,0,0,0,0,0,0,0,0,0,0,0,0,0,0,0,0,0,0,0,0,0,0],"sum_hessian":[2.08E2,4.6E1,1.62E2,3E0,4.3E1,7.8E1,8.4E1,4.2E1,1E0,6.9E1,9E0,3E0,8.1E1,4.1E1,1E0,2.3E1,4.6E1,4E0,5E0,1E0,2E0,7.9E1,2E0,3E0,3.8E1,1.9E1,4E0,3.3E1,1.3E1,7.5E1,4E0,3.7E1,1E0,3E0,1.6E1,4E0,2.9E1,4E0,9E0,7E1,5E0,3.4E1,3E0,1.4E1,2E0,2.2E1,7E0,1E0,8E0,5E0,6.5E1,1E0,3.3E1,1.9E1,3E0,2E0,6.3E1],"tree_param":{"num_deleted":"0","num_feature":"216","num_nodes":"57","size_leaf_vector":"1"}},{"base_weights":[-3.7414924E-4,-1.6181208E-1,4.696589E-2,-3.0360254E-3,-1.9943595E-1,4.241387E-3,8.3805576E-2,-2.1404251E-1,-0E0,6.4577825E-2,-0E0,-2.9833829E-2,9.314357E-2,-2.1933743E-1,-0E0,-0E0,2.2635178E-3,-1.7537333E-2,2.1104725E-2,-0E0,-2.823563E-3,9.705763E-2,-0E0,-6.7447764E-3,-0E0,-0E0,-3.5583112E-2,3.2154236E-2,-0E0,-0E0,9.9439435E-2,-9.8815135E-6,2.3469666E-2,-4.781396E-2,-0E0,-0E0,3.5630815E-2,1.0189362E-1,-0E0,-0E0,1.4229153E-3,-0E0,-5.8647685E-2,3.8780354E-2,-0E0,1.0507512E-1,-0E0,-1.987942E-3,-0E0,-0E0,1.2158134E-3,2.16214E-3,4.2653526E-3],"categories":[],"categories_nodes":[],"categories_segments":[],"categories_sizes":[],"default_left":[0,0,0,0,0,0,0,0,0,0,0,0,0,0,0,0,0,0,0,0,0,0,0,0,0,0,0,0,0,0,0,0,0,0,0,0,0,0,0,0,0,0,0,0,0,0,0,0,0,0,0,0,0],"id":29,"left_children":[1,3,5,-1,7,9,11,13,-1,15,17,19,21,23,-1,-1,-1,25,27,-1,-1,29,-1,-1,-1,31,33,35,-1,-1,37,-1,39,41,-1,-1,43,45,-1,-1,-1,-1,47,49,-1,51,-1,-1,-1,-1,-1,-1,-1],"loss_changes":[1.7386836E0,8.208156E-3,2.423771E-1,0E0,3.16633E-2,4.0191844E-2,1.1515421E-1,9.2589855E-3,0E0,3.839381E-3,2.7096398E-2,2.2124745E-2,4.3694258E-2,7.9597235E-3,0E0,0E0,0E0,2.5446707E-2,1.175353E-2,0E0,0E0,1.860094E-2,0E0,0E0,0E0,6.6106627E-3,1.6637318E-2,2.8810687E-3,0E0,0E0,1.8764138E-2,0E0,9.137668E-3,1.5076201E-2,0E0,0E0,1.9137487E-3,1.8238366E-2,0E0,0E0,0E0,0E0,1.1198707E-2,9.896439E-4,0E0,1.7319202E-2,0E0,0E0,0E0,0E0,0E0,0E0,0E0],"parents":[2147483647,0,0,1,1,2,2,4,4,5,5,6,6,7,7,9,9,10,10,11,11,12,12,13,13,17,17,18,18,21,21,25,25,26,26,27,27,30,30,32,32,33,33,36,36,37,37,42,42,43,43,45,45],"right_children":[2,4,6,-1,8,10,12,14,-1,16,18,20,22,24,-1,-1,-1,26,28,-1,-1,30,-1,-1,-1,32,34,36,-1,-1,38,-1,40,42,-1,-1,44,46,-1,-1,-1,-1,48,50,-1,52,-1,-1,-1,-1,-1,-1,-1],"split_conditions":[-5.302225E-1,1.0547464E0,2.6320365E-1,-3.0360254E-3,-2.4690238E-1,-9.931564E-1,-1.2533519E0,-1.7624171E-1,-0E0,-6.142643E-1,4.8734286E-1,-6.0661995E-1,1.7907745E0,1.4941453E0,-0E0,-0E0,2.2635178E-3,-3.4913376E-1,2.527158E-1,-0E0,-2.823563E-3,-2.8239998E-1,-0E0,-6.7447764E-3,-0E0,-4.5684445E-1,5.540333E-1,-7.906148E-1,-0E0,-0E0,1.5910928E0,-9.8815135E-6,2.0408733E-2,-1.1278877E0,-0E0,-0E0,9.973678E-1,1.2631938E0,-0E0,-0E0,1.4229153E-3,-0E0,1.5034443E0,-1.3806967E0,-0E0,1.0378926E0,-0E0,-1.987942E-3,-0E0,-0E0,1.2158134E-3,2.16214E-3,4.2653526E-3],"split_indices":[125,139,214,0,68,103,131,14,0,119,29,3,212,97,0,0,0,183,49,0,0,106,0,0,0,170,44,157,0,0,187,0,193,59,0,0,77,119,0,0,0,0,43,95,0,84,0,0,0,0,0,0,0],"split_type":[0,0,0,0,0,0,0,0,0,0,0,0,0,0,0,0,0,0,0,0,0,0,0,0,0,0,0,0,0,0,0,0,0,0,0,0,0,0,0,0,0,0,0,0,0,0,0,0,0,0,0,0,0],"sum_hessian":[2.21E2,5.1E1,1.7E2,2.4E1,2.7E1,8.3E1,8.7E1,2.4E1,3E0,9E0,7.4E1,4E0,8.3E1,2.3E1,1E0,2E0,7E0,4.8E1,2.6E1,2E0,2E0,8.1E1,2E0,2.2E1,1E0,1.7E1,3.1E1,2.2E1,4E0,2E0,7.9E1,6E0,1.1E1,2.4E1,7E0,2E0,2E1,7.7E1,2E0,5E0,6E0,4E0,2E1,1.8E1,2E0,7.4E1,3E0,1.8E1,2E0,1E0,1.7E1,4.5E1,2.9E1],"tree_param":{"num_deleted":"0","num_feature":"216","num_nodes":"53","size_leaf_vector":"1"}},{"base_weights":[-2.3587402E-4,-1.4371186E-1,5.3025637E-2,-1.8336509E-1,-8.7946475E-2,3.402297E-3,8.988879E-2,-1.9520913E-1,-0E0,-0E0,-2.6932433E-3,-1.1093718E-2,2.7200876E-2,-5.00836E-2,1.00986026E-1,-1.9998612E-1,-0E0,-4.0742926E-2,1.1452555E-3,7.020459E-2,-0E0,-0E0,-2.399654E-3,-0E0,1.06026426E-1,-6.25295E-3,-0E0,-4.883755E-2,-0E0,-0E0,1.8692782E-2,-0E0,2.3180027E-3,-2.1091718E-2,1.7877724E-2,1.10988505E-1,-0E0,-0E0,-5.370118E-2,9.912056E-4,-0E0,-4.8447736E-2,-0E0,-0E0,2.9142523E-2,1.1590153E-1,-0E0,-1.6912338E-3,-0E0,-1.6220155E-3,-0E0,-0E0,9.3573635E-4,1.1847516E-1,-0E0,2.3684988E-3,4.6377373E-3],"categories":[],"categories_nodes":[],"categories_segments":[],"categories_sizes":[],"default_left":[0,0,0,0,0,0,0,0,0,0,0,0,0,0,0,0,0,0,0,0,0,0,0,0,0,0,0,0,0,0,0,0,0,0,0,0,0,0,0,0,0,0,0,0,0,0,0,0,0,0,0,0,0,0,0,0,0],"id":30,"left_children":[1,3,5,7,9,11,13,15,-1,-1,-1,17,19,21,23,25,-1,27,29,31,33,-1,-1,-1,35,-1,-1,37,-1,-1,39,-1,-1,41,43,45,-1,-1,47,-1,-1,49,-1,-1,51,53,-1,-1,-1,-1,-1,-1,-1,55,-1,-1,-1],"loss_changes":[1.6778021E0,3.5156846E-2,2.570734E-1,2.4679542E-2,1.6883612E-3,2.9627807E-2,1.5391278E-1,1.28650665E-2,0E0,0E0,0E0,2.535237E-2,3.8176835E-2,1.30507825E-2,4.0594578E-2,6.2440634E-3,0E0,3.511738E-3,4.166809E-3,7.5689256E-3,8.923187E-3,0E0,0E0,0E0,3.4720123E-2,0E0,0E0,1.214318E-3,0E0,0E0,6.7234966E-3,0E0,0E0,1.1981677E-2,5.716859E-3,1.5323222E-2,0E0,0E0,3.5307556E-4,0E0,0E0,1.1092797E-3,0E0,0E0,5.103694E-4,1.3548017E-2,0E0,0E0,0E0,0E0,0E0,0E0,0E0,1.3374805E-2,0E0,0E0,0E0],"parents":[2147483647,0,0,1,1,2,2,3,3,4,4,5,5,6,6,7,7,11,11,12,12,13,13,14,14,15,15,17,17,18,18,19,19,20,20,24,24,27,27,30,30,33,33,34,34,35,35,38,38,41,41,44,44,45,45,53,53],"right_children":[2,4,6,8,10,12,14,16,-1,-1,-1,18,20,22,24,26,-1,28,30,32,34,-1,-1,-1,36,-1,-1,38,-1,-1,40,-1,-1,42,44,46,-1,-1,48,-1,-1,50,-1,-1,52,54,-1,-1,-1,-1,-1,-1,-1,56,-1,-1,-1],"split_conditions":[-5.416206E-1,-1.3097922E0,4.0452552E-1,-8.5485184E-1,-1.3485415E0,5.1939033E-2,-1.2533519E0,6.16652E-1,-0E0,-0E0,-2.6932433E-3,-4.4536677E-1,-4.3890804E-1,-2.089368E0,-7.374087E-1,1.6871006E0,-0E0,3.2503426E-1,-7.0257974E-1,-1.2149549E0,7.325821E-2,-0E0,-2.399654E-3,-0E0,1.1977947E0,-6.25295E-3,-0E0,-1.5444473E0,-0E0,-0E0,3.5844842E-1,-0E0,2.3180027E-3,3.898745E-1,-2.1843836E0,1.4764537E0,-0E0,-0E0,8.534541E-1,9.912056E-4,-0E0,8.910985E-1,-0E0,-0E0,-2.7806264E-1,1.5883876E0,-0E0,-1.6912338E-3,-0E0,-1.6220155E-3,-0E0,-0E0,9.3573635E-4,9.321762E-1,-0E0,2.3684988E-3,4.6377373E-3],"split_indices":[179,154,180,162,23,8,131,83,0,0,0,62,11,4,154,185,0,103,95,34,162,0,0,0,204,0,0,98,0,0,49,0,0,29,80,205,0,0,4,0,0,3,0,0,16,164,0,0,0,0,0,0,0,174,0,0,0],"split_type":[0,0,0,0,0,0,0,0,0,0,0,0,0,0,0,0,0,0,0,0,0,0,0,0,0,0,0,0,0,0,0,0,0,0,0,0,0,0,0,0,0,0,0,0,0,0,0,0,0,0,0,0,0,0,0,0,0],"sum_hessian":[2.14E2,5.9E1,1.55E2,3E1,2.9E1,7E1,8.5E1,2.7E1,3E0,1E0,2.8E1,3.6E1,3.4E1,4E0,8.1E1,2.6E1,1E0,1.7E1,1.9E1,1.2E1,2.2E1,1E0,3E0,4E0,7.7E1,2.4E1,2E0,1.3E1,4E0,8E0,1.1E1,1E0,1.1E1,9E0,1.3E1,7.3E1,4E0,2E0,1.1E1,9E0,2E0,6E0,3E0,2E0,1.1E1,6.8E1,5E0,1E1,1E0,5E0,1E0,1E0,1E1,6.6E1,2E0,3.7E1,2.9E1],"tree_param":{"num_deleted":"0","num_feature":"216","num_nodes":"57","size_leaf_vector":"1"}},{"base_weights":[-0E0,-1.5070114E-1,4.787004E-2,-1.542887E-1,-0E0,-0E0,8.531681E-2,-0E0,-1.575875E-1,-7.6260557E-3,3.2736436E-2,-0E0,9.859772E-2,-1.59446E-1,-0E0,3.133613E-2,-2.074919E-2,5.1147003E-2,-0E0,6.9561205E-3,-2.7190975E-3,6.613585E-2,1.404963E-1,-1.6132402E-1,-0E0,-0E0,1.0668926E-3,-0E0,-4.245357E-2,-0E0,6.330176E-2,-0E0,7.762114E-4,-0E0,7.051958E-2,-0E0,1.4919853E-1,-1.6690597E-1,-0E0,1.1209766E-2,-0E0,-0E0,-5.1702853E-2,-0E0,2.244104E-3,-0E0,7.4075885E-2,1.598329E-1,-0E0,-0E0,-1.7108251E-1,6.367981E-4,-0E0,-0E0,-6.305773E-2,7.708927E-2,-0E0,-0E0,5.0703613E-3,-5.2034785E-3,-0E0,-0E0,-2.0326152E-3,2.4422177E-3,-0E0],"categories":[],"categories_nodes":[],"categories_segments":[],"categories_sizes":[],"default_left":[0,0,0,0,0,0,0,0,0,0,0,0,0,0,0,0,0,0,0,0,0,0,0,0,0,0,0,0,0,0,0,0,0,0,0,0,0,0,0,0,0,0,0,0,0,0,0,0,0,0,0,0,0,0,0,0,0,0,0,0,0,0,0,0,0],"id":31,"left_children":[1,3,5,7,-1,9,11,-1,13,15,17,19,21,23,-1,25,27,29,-1,31,-1,33,35,37,-1,-1,-1,39,41,-1,43,-1,-1,-1,45,-1,47,49,-1,51,-1,-1,53,-1,-1,-1,55,57,-1,-1,59,-1,-1,-1,61,63,-1,-1,-1,-1,-1,-1,-1,-1,-1],"loss_changes":[1.6044892E0,1.1474967E-2,2.7700207E-1,3.8309097E-3,0E0,2.4748417E-2,1.2261456E-1,0E0,4.0374994E-3,2.661856E-2,2.0422772E-2,2.5080465E-2,3.7527025E-2,3.4928322E-3,0E0,1.2802891E-3,3.1170946E-2,1.0236211E-2,0E0,4.920104E-3,0E0,1.5633047E-2,3.1109393E-2,4.370928E-3,0E0,0E0,0E0,1.8848828E-3,1.456276E-2,0E0,3.8631149E-3,0E0,0E0,0E0,8.22109E-3,0E0,1.5378118E-2,4.984498E-3,0E0,3.9725103E-3,0E0,0E0,1.2695916E-2,0E0,0E0,0E0,8.612871E-3,1.8332839E-2,0E0,0E0,4.978895E-3,0E0,0E0,0E0,3.1049624E-3,9.547114E-3,0E0,0E0,0E0,0E0,0E0,0E0,0E0,0E0,0E0],"parents":[2147483647,0,0,1,1,2,2,3,3,5,5,6,6,8,8,9,9,10,10,11,11,12,12,13,13,15,15,16,16,17,17,19,19,21,21,22,22,23,23,27,27,28,28,30,30,34,34,36,36,37,37,39,39,42,42,46,46,47,47,50,50,54,54,55,55],"right_children":[2,4,6,8,-1,10,12,-1,14,16,18,20,22,24,-1,26,28,30,-1,32,-1,34,36,38,-1,-1,-1,40,42,-1,44,-1,-1,-1,46,-1,48,50,-1,52,-1,-1,54,-1,-1,-1,56,58,-1,-1,60,-1,-1,-1,62,64,-1,-1,-1,-1,-1,-1,-1,-1,-1],"split_conditions":[-5.302225E-1,1.634309E0,2.0536236E-1,-1.0854657E0,-0E0,1.1149051E0,-1.3583552E0,-0E0,1.634309E0,-1.5191149E0,5.272133E-1,1.0473846E0,1.0378926E0,4.6953864E-2,-0E0,-3.3622935E-1,-5.0176126E-1,-1.0566304E0,-0E0,-4.5684445E-1,-2.7190975E-3,-6.0854346E-1,-1.3074893E0,-1.710072E-1,-0E0,-0E0,1.0668926E-3,1.2654403E-1,-8.79645E-1,-0E0,-1.9448997E-1,-0E0,7.762114E-4,-0E0,-1.6363055E0,-0E0,1.5756911E0,-2.1973011E0,-0E0,1.5494343E0,-0E0,-0E0,-9.1733485E-1,-0E0,2.244104E-3,-0E0,1.4682362E0,-1.8602625E0,-0E0,-0E0,1.6466516E0,6.367981E-4,-0E0,-0E0,-1.2797164E0,1.697084E0,-0E0,-0E0,5.0703613E-3,-5.2034785E-3,-0E0,-0E0,-2.0326152E-3,2.4422177E-3,-0E0],"split_indices":[125,133,196,201,0,48,134,0,151,78,6,0,174,64,0,6,122,203,0,8,0,90,74,68,0,0,0,103,113,0,18,0,0,0,98,0,122,78,0,77,0,0,185,0,0,0,210,114,0,0,43,0,0,0,59,41,0,0,0,0,0,0,0,0,0],"split_type":[0,0,0,0,0,0,0,0,0,0,0,0,0,0,0,0,0,0,0,0,0,0,0,0,0,0,0,0,0,0,0,0,0,0,0,0,0,0,0,0,0,0,0,0,0,0,0,0,0,0,0,0,0,0,0,0,0,0,0,0,0,0,0,0,0],"sum_hessian":[2.17E2,5.3E1,1.64E2,5.1E1,2E0,7.5E1,8.9E1,2E0,4.9E1,5.6E1,1.9E1,1E1,7.9E1,4.8E1,1E0,8E0,4.8E1,1.5E1,4E0,8E0,2E0,5E1,2.9E1,4.7E1,1E0,1E0,7E0,2E1,2.8E1,3E0,1.2E1,1E0,7E0,3E0,4.7E1,2E0,2.7E1,4.4E1,3E0,1.4E1,6E0,4E0,2.4E1,3E0,9E0,3E0,4.4E1,2.4E1,3E0,2E0,4.2E1,1.2E1,2E0,5E0,1.9E1,4.2E1,2E0,2E0,2.2E1,4.1E1,1E0,2E0,1.7E1,3.9E1,3E0],"tree_param":{"num_deleted":"0","num_feature":"216","num_nodes":"65","size_leaf_vector":"1"}},{"base_weights":[-0E0,-1.4944924E-1,4.748522E-2,-1.8354399E-3,-1.7547189E-1,2.6987102E-3,8.3968475E-2,-0E0,-1.8405454E-1,3.893458E-2,-4.6705324E-3,9.567694E-2,-3.1851828E-3,-0E0,-1.9077486E-1,-0E0,5.4322142E-2,-2.1770509E-2,1.39079485E-2,1.0129617E-1,-0E0,-1.9539723E-3,-0E0,-1.9812188E-1,-0E0,7.244353E-2,-0E0,-0E0,-4.6682917E-2,3.0682806E-2,-0E0,1.0489494E-1,-0E0,-2.0201552E-1,-0E0,-0E0,2.3663552E-3,1.3630435E-2,-0E0,-0E0,-6.2429797E-2,3.863436E-2,-0E0,-0E0,1.0853327E-1,-0E0,-6.1722547E-3,-0E0,5.6133216E-4,-7.965576E-2,-0E0,-0E0,1.2186754E-3,1.1127132E-1,-0E0,-0E0,-2.4993E-3,-0E0,3.415395E-3],"categories":[],"categories_nodes":[],"categories_segments":[],"categories_sizes":[],"default_left":[0,0,0,0,0,0,0,0,0,0,0,0,0,0,0,0,0,0,0,0,0,0,0,0,0,0,0,0,0,0,0,0,0,0,0,0,0,0,0,0,0,0,0,0,0,0,0,0,0,0,0,0,0,0,0,0,0,0,0],"id":32,"left_children":[1,3,5,-1,7,9,11,-1,13,15,17,19,21,-1,23,-1,25,27,29,31,-1,-1,-1,33,-1,35,-1,37,39,41,-1,43,-1,45,-1,-1,-1,47,-1,-1,49,51,-1,-1,53,-1,-1,-1,-1,55,-1,-1,-1,57,-1,-1,-1,-1,-1],"loss_changes":[1.5244544E0,3.7710547E-2,2.3684043E-1,0E0,1.2542367E-2,3.102244E-2,1.1478937E-1,0E0,1.2855053E-2,1.9847183E-2,2.1087663E-2,5.5550456E-2,1.688776E-2,0E0,1.2926817E-2,0E0,1.8059626E-2,2.9460235E-2,8.370031E-3,2.2643864E-2,0E0,0E0,0E0,5.9295893E-3,0E0,2.1516532E-4,0E0,2.229465E-3,1.8312674E-2,4.1801007E-3,0E0,2.0571053E-2,0E0,1.7336607E-3,0E0,0E0,0E0,1.2715773E-3,0E0,0E0,1.622837E-2,8.313544E-5,0E0,0E0,1.6764104E-2,0E0,0E0,0E0,0E0,8.011535E-4,0E0,0E0,0E0,1.2919188E-2,0E0,0E0,0E0,0E0,0E0],"parents":[2147483647,0,0,1,1,2,2,4,4,5,5,6,6,8,8,9,9,10,10,11,11,12,12,14,14,16,16,17,17,18,18,19,19,23,23,25,25,27,27,28,28,29,29,31,31,33,33,37,37,40,40,41,41,44,44,49,49,53,53],"right_children":[2,4,6,-1,8,10,12,-1,14,16,18,20,22,-1,24,-1,26,28,30,32,-1,-1,-1,34,-1,36,-1,38,40,42,-1,44,-1,46,-1,-1,-1,48,-1,-1,50,52,-1,-1,54,-1,-1,-1,-1,56,-1,-1,-1,58,-1,-1,-1,-1,-1],"split_conditions":[-5.302225E-1,6.6939366E-1,4.0591642E-1,-1.8354399E-3,-1.2963514E0,-6.815257E-1,1.1977947E0,-0E0,8.2292095E-2,